digraph Tree {
node [shape=box] ;
0 [label="number_inpatient <= 0.5\nentropy = 1.0\nsamples = 4000\nvalue = [1982, 2018]"] ;
1 [label="admission_source_id <= 4.5\nentropy = 0.993\nsamples = 3027\nvalue = [1659, 1368]"] ;
0 -> 1 [labeldistance=2.5, labelangle=45, headlabel="True"] ;
2 [label="number_diagnoses <= 7.5\nentropy = 0.948\nsamples = 1098\nvalue = [695, 403]"] ;
1 -> 2 ;
3 [label="num_lab_procedures <= 33.5\nentropy = 0.896\nsamples = 694\nvalue = [477, 217]"] ;
2 -> 3 ;
4 [label="num_procedures <= 2.5\nentropy = 0.778\nsamples = 235\nvalue = [181, 54]"] ;
3 -> 4 ;
5 [label="medical_specialty <= 11.5\nentropy = 0.872\nsamples = 154\nvalue = [109, 45]"] ;
4 -> 5 ;
6 [label="number_diagnoses <= 3.5\nentropy = 0.946\nsamples = 99\nvalue = [63, 36]"] ;
5 -> 6 ;
7 [label="diag_3 <= 9.5\nentropy = 0.677\nsamples = 28\nvalue = [23, 5]"] ;
6 -> 7 ;
8 [label="glyburide <= 0.5\nentropy = 0.516\nsamples = 26\nvalue = [23, 3]"] ;
7 -> 8 ;
9 [label="race <= 0.5\nentropy = 0.402\nsamples = 25\nvalue = [23, 2]"] ;
8 -> 9 ;
10 [label="entropy = 0.0\nsamples = 17\nvalue = [17, 0]"] ;
9 -> 10 ;
11 [label="num_lab_procedures <= 11.5\nentropy = 0.811\nsamples = 8\nvalue = [6, 2]"] ;
9 -> 11 ;
12 [label="entropy = 0.0\nsamples = 4\nvalue = [4, 0]"] ;
11 -> 12 ;
13 [label="num_lab_procedures <= 14.0\nentropy = 1.0\nsamples = 4\nvalue = [2, 2]"] ;
11 -> 13 ;
14 [label="entropy = 0.0\nsamples = 1\nvalue = [0, 1]"] ;
13 -> 14 ;
15 [label="time_in_hospital <= 1.5\nentropy = 0.918\nsamples = 3\nvalue = [2, 1]"] ;
13 -> 15 ;
16 [label="entropy = 0.0\nsamples = 1\nvalue = [0, 1]"] ;
15 -> 16 ;
17 [label="entropy = 0.0\nsamples = 2\nvalue = [2, 0]"] ;
15 -> 17 ;
18 [label="entropy = 0.0\nsamples = 1\nvalue = [0, 1]"] ;
8 -> 18 ;
19 [label="entropy = 0.0\nsamples = 2\nvalue = [0, 2]"] ;
7 -> 19 ;
20 [label="insulin <= 1.5\nentropy = 0.988\nsamples = 71\nvalue = [40, 31]"] ;
6 -> 20 ;
21 [label="age_60 <= 0.5\nentropy = 0.971\nsamples = 65\nvalue = [39, 26]"] ;
20 -> 21 ;
22 [label="num_medications <= 4.0\nentropy = 0.998\nsamples = 51\nvalue = [27, 24]"] ;
21 -> 22 ;
23 [label="entropy = 0.0\nsamples = 3\nvalue = [3, 0]"] ;
22 -> 23 ;
24 [label="admission_type_id <= 2.5\nentropy = 1.0\nsamples = 48\nvalue = [24, 24]"] ;
22 -> 24 ;
25 [label="age_80 <= 0.5\nentropy = 0.951\nsamples = 27\nvalue = [10, 17]"] ;
24 -> 25 ;
26 [label="num_lab_procedures <= 7.5\nentropy = 0.845\nsamples = 22\nvalue = [6, 16]"] ;
25 -> 26 ;
27 [label="age_30 <= 0.5\nentropy = 0.811\nsamples = 4\nvalue = [3, 1]"] ;
26 -> 27 ;
28 [label="entropy = 0.0\nsamples = 3\nvalue = [3, 0]"] ;
27 -> 28 ;
29 [label="entropy = 0.0\nsamples = 1\nvalue = [0, 1]"] ;
27 -> 29 ;
30 [label="age_50 <= 0.5\nentropy = 0.65\nsamples = 18\nvalue = [3, 15]"] ;
26 -> 30 ;
31 [label="entropy = 0.0\nsamples = 10\nvalue = [0, 10]"] ;
30 -> 31 ;
32 [label="number_diagnoses <= 6.5\nentropy = 0.954\nsamples = 8\nvalue = [3, 5]"] ;
30 -> 32 ;
33 [label="number_diagnoses <= 4.5\nentropy = 0.971\nsamples = 5\nvalue = [3, 2]"] ;
32 -> 33 ;
34 [label="entropy = 0.0\nsamples = 2\nvalue = [0, 2]"] ;
33 -> 34 ;
35 [label="entropy = 0.0\nsamples = 3\nvalue = [3, 0]"] ;
33 -> 35 ;
36 [label="entropy = 0.0\nsamples = 3\nvalue = [0, 3]"] ;
32 -> 36 ;
37 [label="time_in_hospital <= 10.0\nentropy = 0.722\nsamples = 5\nvalue = [4, 1]"] ;
25 -> 37 ;
38 [label="entropy = 0.0\nsamples = 4\nvalue = [4, 0]"] ;
37 -> 38 ;
39 [label="entropy = 0.0\nsamples = 1\nvalue = [0, 1]"] ;
37 -> 39 ;
40 [label="gender <= 0.5\nentropy = 0.918\nsamples = 21\nvalue = [14, 7]"] ;
24 -> 40 ;
41 [label="metformin <= 2.0\nentropy = 0.469\nsamples = 10\nvalue = [9, 1]"] ;
40 -> 41 ;
42 [label="entropy = 0.0\nsamples = 9\nvalue = [9, 0]"] ;
41 -> 42 ;
43 [label="entropy = 0.0\nsamples = 1\nvalue = [0, 1]"] ;
41 -> 43 ;
44 [label="time_in_hospital <= 1.5\nentropy = 0.994\nsamples = 11\nvalue = [5, 6]"] ;
40 -> 44 ;
45 [label="entropy = 0.0\nsamples = 3\nvalue = [0, 3]"] ;
44 -> 45 ;
46 [label="num_lab_procedures <= 19.5\nentropy = 0.954\nsamples = 8\nvalue = [5, 3]"] ;
44 -> 46 ;
47 [label="entropy = 0.0\nsamples = 3\nvalue = [3, 0]"] ;
46 -> 47 ;
48 [label="discharge_disposition_id <= 5.5\nentropy = 0.971\nsamples = 5\nvalue = [2, 3]"] ;
46 -> 48 ;
49 [label="num_medications <= 27.0\nentropy = 0.918\nsamples = 3\nvalue = [2, 1]"] ;
48 -> 49 ;
50 [label="entropy = 0.0\nsamples = 2\nvalue = [2, 0]"] ;
49 -> 50 ;
51 [label="entropy = 0.0\nsamples = 1\nvalue = [0, 1]"] ;
49 -> 51 ;
52 [label="entropy = 0.0\nsamples = 2\nvalue = [0, 2]"] ;
48 -> 52 ;
53 [label="race <= 0.5\nentropy = 0.592\nsamples = 14\nvalue = [12, 2]"] ;
21 -> 53 ;
54 [label="entropy = 0.0\nsamples = 11\nvalue = [11, 0]"] ;
53 -> 54 ;
55 [label="number_diagnoses <= 6.0\nentropy = 0.918\nsamples = 3\nvalue = [1, 2]"] ;
53 -> 55 ;
56 [label="entropy = 0.0\nsamples = 2\nvalue = [0, 2]"] ;
55 -> 56 ;
57 [label="entropy = 0.0\nsamples = 1\nvalue = [1, 0]"] ;
55 -> 57 ;
58 [label="discharge_disposition_id <= 3.5\nentropy = 0.65\nsamples = 6\nvalue = [1, 5]"] ;
20 -> 58 ;
59 [label="entropy = 0.0\nsamples = 5\nvalue = [0, 5]"] ;
58 -> 59 ;
60 [label="entropy = 0.0\nsamples = 1\nvalue = [1, 0]"] ;
58 -> 60 ;
61 [label="num_medications <= 4.5\nentropy = 0.643\nsamples = 55\nvalue = [46, 9]"] ;
5 -> 61 ;
62 [label="diag_3 <= 1.5\nentropy = 0.971\nsamples = 5\nvalue = [2, 3]"] ;
61 -> 62 ;
63 [label="entropy = 0.0\nsamples = 2\nvalue = [0, 2]"] ;
62 -> 63 ;
64 [label="num_medications <= 3.5\nentropy = 0.918\nsamples = 3\nvalue = [2, 1]"] ;
62 -> 64 ;
65 [label="entropy = 0.0\nsamples = 2\nvalue = [2, 0]"] ;
64 -> 65 ;
66 [label="entropy = 0.0\nsamples = 1\nvalue = [0, 1]"] ;
64 -> 66 ;
67 [label="metformin <= 0.5\nentropy = 0.529\nsamples = 50\nvalue = [44, 6]"] ;
61 -> 67 ;
68 [label="age_60 <= 0.5\nentropy = 0.629\nsamples = 38\nvalue = [32, 6]"] ;
67 -> 68 ;
69 [label="discharge_disposition_id <= 1.5\nentropy = 0.449\nsamples = 32\nvalue = [29, 3]"] ;
68 -> 69 ;
70 [label="time_in_hospital <= 6.0\nentropy = 0.229\nsamples = 27\nvalue = [26, 1]"] ;
69 -> 70 ;
71 [label="entropy = 0.0\nsamples = 26\nvalue = [26, 0]"] ;
70 -> 71 ;
72 [label="entropy = 0.0\nsamples = 1\nvalue = [0, 1]"] ;
70 -> 72 ;
73 [label="time_in_hospital <= 2.5\nentropy = 0.971\nsamples = 5\nvalue = [3, 2]"] ;
69 -> 73 ;
74 [label="diabetesMed <= 0.5\nentropy = 0.918\nsamples = 3\nvalue = [1, 2]"] ;
73 -> 74 ;
75 [label="entropy = 0.0\nsamples = 1\nvalue = [1, 0]"] ;
74 -> 75 ;
76 [label="entropy = 0.0\nsamples = 2\nvalue = [0, 2]"] ;
74 -> 76 ;
77 [label="entropy = 0.0\nsamples = 2\nvalue = [2, 0]"] ;
73 -> 77 ;
78 [label="num_lab_procedures <= 14.5\nentropy = 1.0\nsamples = 6\nvalue = [3, 3]"] ;
68 -> 78 ;
79 [label="entropy = 0.0\nsamples = 2\nvalue = [2, 0]"] ;
78 -> 79 ;
80 [label="num_lab_procedures <= 32.0\nentropy = 0.811\nsamples = 4\nvalue = [1, 3]"] ;
78 -> 80 ;
81 [label="entropy = 0.0\nsamples = 3\nvalue = [0, 3]"] ;
80 -> 81 ;
82 [label="entropy = 0.0\nsamples = 1\nvalue = [1, 0]"] ;
80 -> 82 ;
83 [label="entropy = 0.0\nsamples = 12\nvalue = [12, 0]"] ;
67 -> 83 ;
84 [label="insulin <= 0.5\nentropy = 0.503\nsamples = 81\nvalue = [72, 9]"] ;
4 -> 84 ;
85 [label="age_50 <= 0.5\nentropy = 0.657\nsamples = 53\nvalue = [44, 9]"] ;
84 -> 85 ;
86 [label="num_procedures <= 3.5\nentropy = 0.414\nsamples = 36\nvalue = [33, 3]"] ;
85 -> 86 ;
87 [label="entropy = 0.0\nsamples = 21\nvalue = [21, 0]"] ;
86 -> 87 ;
88 [label="num_medications <= 13.0\nentropy = 0.722\nsamples = 15\nvalue = [12, 3]"] ;
86 -> 88 ;
89 [label="num_medications <= 10.5\nentropy = 0.918\nsamples = 9\nvalue = [6, 3]"] ;
88 -> 89 ;
90 [label="medical_specialty <= 2.0\nentropy = 0.592\nsamples = 7\nvalue = [6, 1]"] ;
89 -> 90 ;
91 [label="entropy = 0.0\nsamples = 1\nvalue = [0, 1]"] ;
90 -> 91 ;
92 [label="entropy = 0.0\nsamples = 6\nvalue = [6, 0]"] ;
90 -> 92 ;
93 [label="entropy = 0.0\nsamples = 2\nvalue = [0, 2]"] ;
89 -> 93 ;
94 [label="entropy = 0.0\nsamples = 6\nvalue = [6, 0]"] ;
88 -> 94 ;
95 [label="time_in_hospital <= 4.5\nentropy = 0.937\nsamples = 17\nvalue = [11, 6]"] ;
85 -> 95 ;
96 [label="diag_3 <= 9.5\nentropy = 0.65\nsamples = 12\nvalue = [10, 2]"] ;
95 -> 96 ;
97 [label="admission_type_id <= 2.5\nentropy = 0.439\nsamples = 11\nvalue = [10, 1]"] ;
96 -> 97 ;
98 [label="entropy = 0.0\nsamples = 7\nvalue = [7, 0]"] ;
97 -> 98 ;
99 [label="num_medications <= 11.0\nentropy = 0.811\nsamples = 4\nvalue = [3, 1]"] ;
97 -> 99 ;
100 [label="entropy = 0.0\nsamples = 1\nvalue = [0, 1]"] ;
99 -> 100 ;
101 [label="entropy = 0.0\nsamples = 3\nvalue = [3, 0]"] ;
99 -> 101 ;
102 [label="entropy = 0.0\nsamples = 1\nvalue = [0, 1]"] ;
96 -> 102 ;
103 [label="num_lab_procedures <= 31.5\nentropy = 0.722\nsamples = 5\nvalue = [1, 4]"] ;
95 -> 103 ;
104 [label="entropy = 0.0\nsamples = 4\nvalue = [0, 4]"] ;
103 -> 104 ;
105 [label="entropy = 0.0\nsamples = 1\nvalue = [1, 0]"] ;
103 -> 105 ;
106 [label="entropy = 0.0\nsamples = 28\nvalue = [28, 0]"] ;
84 -> 106 ;
107 [label="medical_specialty <= 4.5\nentropy = 0.939\nsamples = 459\nvalue = [296, 163]"] ;
3 -> 107 ;
108 [label="age_50 <= 0.5\nentropy = 0.981\nsamples = 196\nvalue = [114, 82]"] ;
107 -> 108 ;
109 [label="number_diagnoses <= 4.5\nentropy = 0.944\nsamples = 141\nvalue = [90, 51]"] ;
108 -> 109 ;
110 [label="time_in_hospital <= 1.5\nentropy = 0.661\nsamples = 35\nvalue = [29, 6]"] ;
109 -> 110 ;
111 [label="entropy = 0.0\nsamples = 11\nvalue = [11, 0]"] ;
110 -> 111 ;
112 [label="num_procedures <= 3.5\nentropy = 0.811\nsamples = 24\nvalue = [18, 6]"] ;
110 -> 112 ;
113 [label="admission_source_id <= 1.5\nentropy = 0.9\nsamples = 19\nvalue = [13, 6]"] ;
112 -> 113 ;
114 [label="race <= 0.5\nentropy = 0.787\nsamples = 17\nvalue = [13, 4]"] ;
113 -> 114 ;
115 [label="number_diagnoses <= 2.5\nentropy = 0.971\nsamples = 10\nvalue = [6, 4]"] ;
114 -> 115 ;
116 [label="entropy = 0.0\nsamples = 2\nvalue = [2, 0]"] ;
115 -> 116 ;
117 [label="num_lab_procedures <= 43.0\nentropy = 1.0\nsamples = 8\nvalue = [4, 4]"] ;
115 -> 117 ;
118 [label="entropy = 0.0\nsamples = 3\nvalue = [0, 3]"] ;
117 -> 118 ;
119 [label="num_lab_procedures <= 47.5\nentropy = 0.722\nsamples = 5\nvalue = [4, 1]"] ;
117 -> 119 ;
120 [label="entropy = 0.0\nsamples = 3\nvalue = [3, 0]"] ;
119 -> 120 ;
121 [label="glipizide <= 1.0\nentropy = 1.0\nsamples = 2\nvalue = [1, 1]"] ;
119 -> 121 ;
122 [label="entropy = 0.0\nsamples = 1\nvalue = [0, 1]"] ;
121 -> 122 ;
123 [label="entropy = 0.0\nsamples = 1\nvalue = [1, 0]"] ;
121 -> 123 ;
124 [label="entropy = 0.0\nsamples = 7\nvalue = [7, 0]"] ;
114 -> 124 ;
125 [label="entropy = 0.0\nsamples = 2\nvalue = [0, 2]"] ;
113 -> 125 ;
126 [label="entropy = 0.0\nsamples = 5\nvalue = [5, 0]"] ;
112 -> 126 ;
127 [label="admission_type_id <= 1.5\nentropy = 0.984\nsamples = 106\nvalue = [61, 45]"] ;
109 -> 127 ;
128 [label="entropy = 0.0\nsamples = 5\nvalue = [5, 0]"] ;
127 -> 128 ;
129 [label="num_lab_procedures <= 69.5\nentropy = 0.991\nsamples = 101\nvalue = [56, 45]"] ;
127 -> 129 ;
130 [label="change <= 0.5\nentropy = 0.996\nsamples = 97\nvalue = [52, 45]"] ;
129 -> 130 ;
131 [label="time_in_hospital <= 7.5\nentropy = 0.971\nsamples = 70\nvalue = [42, 28]"] ;
130 -> 131 ;
132 [label="number_diagnoses <= 5.5\nentropy = 0.929\nsamples = 61\nvalue = [40, 21]"] ;
131 -> 132 ;
133 [label="diag_3 <= 9.0\nentropy = 0.985\nsamples = 21\nvalue = [9, 12]"] ;
132 -> 133 ;
134 [label="age_60 <= 0.5\nentropy = 0.949\nsamples = 19\nvalue = [7, 12]"] ;
133 -> 134 ;
135 [label="discharge_disposition_id <= 1.5\nentropy = 1.0\nsamples = 14\nvalue = [7, 7]"] ;
134 -> 135 ;
136 [label="num_lab_procedures <= 39.5\nentropy = 0.946\nsamples = 11\nvalue = [7, 4]"] ;
135 -> 136 ;
137 [label="entropy = 0.0\nsamples = 2\nvalue = [0, 2]"] ;
136 -> 137 ;
138 [label="num_medications <= 11.0\nentropy = 0.764\nsamples = 9\nvalue = [7, 2]"] ;
136 -> 138 ;
139 [label="entropy = 0.0\nsamples = 5\nvalue = [5, 0]"] ;
138 -> 139 ;
140 [label="diabetesMed <= 0.5\nentropy = 1.0\nsamples = 4\nvalue = [2, 2]"] ;
138 -> 140 ;
141 [label="entropy = 0.0\nsamples = 2\nvalue = [0, 2]"] ;
140 -> 141 ;
142 [label="entropy = 0.0\nsamples = 2\nvalue = [2, 0]"] ;
140 -> 142 ;
143 [label="entropy = 0.0\nsamples = 3\nvalue = [0, 3]"] ;
135 -> 143 ;
144 [label="entropy = 0.0\nsamples = 5\nvalue = [0, 5]"] ;
134 -> 144 ;
145 [label="entropy = 0.0\nsamples = 2\nvalue = [2, 0]"] ;
133 -> 145 ;
146 [label="num_medications <= 15.5\nentropy = 0.769\nsamples = 40\nvalue = [31, 9]"] ;
132 -> 146 ;
147 [label="time_in_hospital <= 6.5\nentropy = 0.845\nsamples = 33\nvalue = [24, 9]"] ;
146 -> 147 ;
148 [label="num_lab_procedures <= 43.5\nentropy = 0.894\nsamples = 29\nvalue = [20, 9]"] ;
147 -> 148 ;
149 [label="age_60 <= 0.5\nentropy = 0.592\nsamples = 14\nvalue = [12, 2]"] ;
148 -> 149 ;
150 [label="entropy = 0.0\nsamples = 9\nvalue = [9, 0]"] ;
149 -> 150 ;
151 [label="time_in_hospital <= 1.5\nentropy = 0.971\nsamples = 5\nvalue = [3, 2]"] ;
149 -> 151 ;
152 [label="entropy = 0.0\nsamples = 2\nvalue = [2, 0]"] ;
151 -> 152 ;
153 [label="gender <= 0.5\nentropy = 0.918\nsamples = 3\nvalue = [1, 2]"] ;
151 -> 153 ;
154 [label="entropy = 0.0\nsamples = 2\nvalue = [0, 2]"] ;
153 -> 154 ;
155 [label="entropy = 0.0\nsamples = 1\nvalue = [1, 0]"] ;
153 -> 155 ;
156 [label="num_lab_procedures <= 45.0\nentropy = 0.997\nsamples = 15\nvalue = [8, 7]"] ;
148 -> 156 ;
157 [label="entropy = 0.0\nsamples = 2\nvalue = [0, 2]"] ;
156 -> 157 ;
158 [label="number_diagnoses <= 6.5\nentropy = 0.961\nsamples = 13\nvalue = [8, 5]"] ;
156 -> 158 ;
159 [label="rosiglitazone <= 0.5\nentropy = 0.65\nsamples = 6\nvalue = [5, 1]"] ;
158 -> 159 ;
160 [label="entropy = 0.0\nsamples = 5\nvalue = [5, 0]"] ;
159 -> 160 ;
161 [label="entropy = 0.0\nsamples = 1\nvalue = [0, 1]"] ;
159 -> 161 ;
162 [label="num_procedures <= 2.0\nentropy = 0.985\nsamples = 7\nvalue = [3, 4]"] ;
158 -> 162 ;
163 [label="entropy = 0.0\nsamples = 3\nvalue = [0, 3]"] ;
162 -> 163 ;
164 [label="age_60 <= 0.5\nentropy = 0.811\nsamples = 4\nvalue = [3, 1]"] ;
162 -> 164 ;
165 [label="entropy = 0.0\nsamples = 2\nvalue = [2, 0]"] ;
164 -> 165 ;
166 [label="discharge_disposition_id <= 1.5\nentropy = 1.0\nsamples = 2\nvalue = [1, 1]"] ;
164 -> 166 ;
167 [label="entropy = 0.0\nsamples = 1\nvalue = [0, 1]"] ;
166 -> 167 ;
168 [label="entropy = 0.0\nsamples = 1\nvalue = [1, 0]"] ;
166 -> 168 ;
169 [label="entropy = 0.0\nsamples = 4\nvalue = [4, 0]"] ;
147 -> 169 ;
170 [label="entropy = 0.0\nsamples = 7\nvalue = [7, 0]"] ;
146 -> 170 ;
171 [label="time_in_hospital <= 10.0\nentropy = 0.764\nsamples = 9\nvalue = [2, 7]"] ;
131 -> 171 ;
172 [label="entropy = 0.0\nsamples = 6\nvalue = [0, 6]"] ;
171 -> 172 ;
173 [label="num_procedures <= 2.0\nentropy = 0.918\nsamples = 3\nvalue = [2, 1]"] ;
171 -> 173 ;
174 [label="entropy = 0.0\nsamples = 1\nvalue = [0, 1]"] ;
173 -> 174 ;
175 [label="entropy = 0.0\nsamples = 2\nvalue = [2, 0]"] ;
173 -> 175 ;
176 [label="num_lab_procedures <= 42.0\nentropy = 0.951\nsamples = 27\nvalue = [10, 17]"] ;
130 -> 176 ;
177 [label="entropy = 0.0\nsamples = 5\nvalue = [0, 5]"] ;
176 -> 177 ;
178 [label="insulin <= 1.5\nentropy = 0.994\nsamples = 22\nvalue = [10, 12]"] ;
176 -> 178 ;
179 [label="num_lab_procedures <= 57.0\nentropy = 0.896\nsamples = 16\nvalue = [5, 11]"] ;
178 -> 179 ;
180 [label="num_lab_procedures <= 50.5\nentropy = 1.0\nsamples = 10\nvalue = [5, 5]"] ;
179 -> 180 ;
181 [label="insulin <= 0.5\nentropy = 0.863\nsamples = 7\nvalue = [2, 5]"] ;
180 -> 181 ;
182 [label="entropy = 0.0\nsamples = 4\nvalue = [0, 4]"] ;
181 -> 182 ;
183 [label="number_diagnoses <= 6.5\nentropy = 0.918\nsamples = 3\nvalue = [2, 1]"] ;
181 -> 183 ;
184 [label="entropy = 0.0\nsamples = 2\nvalue = [2, 0]"] ;
183 -> 184 ;
185 [label="entropy = 0.0\nsamples = 1\nvalue = [0, 1]"] ;
183 -> 185 ;
186 [label="entropy = 0.0\nsamples = 3\nvalue = [3, 0]"] ;
180 -> 186 ;
187 [label="entropy = 0.0\nsamples = 6\nvalue = [0, 6]"] ;
179 -> 187 ;
188 [label="number_diagnoses <= 6.5\nentropy = 0.65\nsamples = 6\nvalue = [5, 1]"] ;
178 -> 188 ;
189 [label="entropy = 0.0\nsamples = 5\nvalue = [5, 0]"] ;
188 -> 189 ;
190 [label="entropy = 0.0\nsamples = 1\nvalue = [0, 1]"] ;
188 -> 190 ;
191 [label="entropy = 0.0\nsamples = 4\nvalue = [4, 0]"] ;
129 -> 191 ;
192 [label="num_medications <= 15.5\nentropy = 0.988\nsamples = 55\nvalue = [24, 31]"] ;
108 -> 192 ;
193 [label="num_lab_procedures <= 38.5\nentropy = 0.991\nsamples = 36\nvalue = [20, 16]"] ;
192 -> 193 ;
194 [label="number_diagnoses <= 3.5\nentropy = 0.544\nsamples = 8\nvalue = [7, 1]"] ;
193 -> 194 ;
195 [label="metformin <= 0.5\nentropy = 1.0\nsamples = 2\nvalue = [1, 1]"] ;
194 -> 195 ;
196 [label="entropy = 0.0\nsamples = 1\nvalue = [0, 1]"] ;
195 -> 196 ;
197 [label="entropy = 0.0\nsamples = 1\nvalue = [1, 0]"] ;
195 -> 197 ;
198 [label="entropy = 0.0\nsamples = 6\nvalue = [6, 0]"] ;
194 -> 198 ;
199 [label="num_medications <= 8.5\nentropy = 0.996\nsamples = 28\nvalue = [13, 15]"] ;
193 -> 199 ;
200 [label="number_diagnoses <= 5.5\nentropy = 0.722\nsamples = 10\nvalue = [2, 8]"] ;
199 -> 200 ;
201 [label="entropy = 0.0\nsamples = 8\nvalue = [0, 8]"] ;
200 -> 201 ;
202 [label="entropy = 0.0\nsamples = 2\nvalue = [2, 0]"] ;
200 -> 202 ;
203 [label="time_in_hospital <= 1.5\nentropy = 0.964\nsamples = 18\nvalue = [11, 7]"] ;
199 -> 203 ;
204 [label="entropy = 0.0\nsamples = 4\nvalue = [4, 0]"] ;
203 -> 204 ;
205 [label="time_in_hospital <= 3.5\nentropy = 1.0\nsamples = 14\nvalue = [7, 7]"] ;
203 -> 205 ;
206 [label="number_diagnoses <= 4.5\nentropy = 0.811\nsamples = 8\nvalue = [2, 6]"] ;
205 -> 206 ;
207 [label="entropy = 0.0\nsamples = 1\nvalue = [1, 0]"] ;
206 -> 207 ;
208 [label="num_lab_procedures <= 42.0\nentropy = 0.592\nsamples = 7\nvalue = [1, 6]"] ;
206 -> 208 ;
209 [label="metformin <= 0.5\nentropy = 1.0\nsamples = 2\nvalue = [1, 1]"] ;
208 -> 209 ;
210 [label="entropy = 0.0\nsamples = 1\nvalue = [1, 0]"] ;
209 -> 210 ;
211 [label="entropy = 0.0\nsamples = 1\nvalue = [0, 1]"] ;
209 -> 211 ;
212 [label="entropy = 0.0\nsamples = 5\nvalue = [0, 5]"] ;
208 -> 212 ;
213 [label="change <= 0.5\nentropy = 0.65\nsamples = 6\nvalue = [5, 1]"] ;
205 -> 213 ;
214 [label="time_in_hospital <= 5.5\nentropy = 0.918\nsamples = 3\nvalue = [2, 1]"] ;
213 -> 214 ;
215 [label="entropy = 0.0\nsamples = 2\nvalue = [2, 0]"] ;
214 -> 215 ;
216 [label="entropy = 0.0\nsamples = 1\nvalue = [0, 1]"] ;
214 -> 216 ;
217 [label="entropy = 0.0\nsamples = 3\nvalue = [3, 0]"] ;
213 -> 217 ;
218 [label="glipizide <= 0.5\nentropy = 0.742\nsamples = 19\nvalue = [4, 15]"] ;
192 -> 218 ;
219 [label="entropy = 0.0\nsamples = 14\nvalue = [0, 14]"] ;
218 -> 219 ;
220 [label="num_medications <= 33.5\nentropy = 0.722\nsamples = 5\nvalue = [4, 1]"] ;
218 -> 220 ;
221 [label="entropy = 0.0\nsamples = 4\nvalue = [4, 0]"] ;
220 -> 221 ;
222 [label="entropy = 0.0\nsamples = 1\nvalue = [0, 1]"] ;
220 -> 222 ;
223 [label="age_50 <= 0.5\nentropy = 0.891\nsamples = 263\nvalue = [182, 81]"] ;
107 -> 223 ;
224 [label="time_in_hospital <= 7.5\nentropy = 0.929\nsamples = 215\nvalue = [141, 74]"] ;
223 -> 224 ;
225 [label="metformin <= 0.5\nentropy = 0.883\nsamples = 176\nvalue = [123, 53]"] ;
224 -> 225 ;
226 [label="medical_specialty <= 25.5\nentropy = 0.926\nsamples = 135\nvalue = [89, 46]"] ;
225 -> 226 ;
227 [label="num_medications <= 28.5\nentropy = 0.937\nsamples = 130\nvalue = [84, 46]"] ;
226 -> 227 ;
228 [label="time_in_hospital <= 3.5\nentropy = 0.949\nsamples = 125\nvalue = [79, 46]"] ;
227 -> 228 ;
229 [label="num_medications <= 23.0\nentropy = 0.857\nsamples = 64\nvalue = [46, 18]"] ;
228 -> 229 ;
230 [label="num_medications <= 6.5\nentropy = 0.791\nsamples = 59\nvalue = [45, 14]"] ;
229 -> 230 ;
231 [label="num_lab_procedures <= 47.5\nentropy = 0.918\nsamples = 6\nvalue = [2, 4]"] ;
230 -> 231 ;
232 [label="entropy = 0.0\nsamples = 3\nvalue = [0, 3]"] ;
231 -> 232 ;
233 [label="number_diagnoses <= 2.5\nentropy = 0.918\nsamples = 3\nvalue = [2, 1]"] ;
231 -> 233 ;
234 [label="entropy = 0.0\nsamples = 1\nvalue = [0, 1]"] ;
233 -> 234 ;
235 [label="entropy = 0.0\nsamples = 2\nvalue = [2, 0]"] ;
233 -> 235 ;
236 [label="age_40 <= 0.5\nentropy = 0.699\nsamples = 53\nvalue = [43, 10]"] ;
230 -> 236 ;
237 [label="admission_source_id <= 3.0\nentropy = 0.801\nsamples = 41\nvalue = [31, 10]"] ;
236 -> 237 ;
238 [label="diag_3 <= 1.5\nentropy = 0.907\nsamples = 31\nvalue = [21, 10]"] ;
237 -> 238 ;
239 [label="medical_specialty <= 8.0\nentropy = 0.971\nsamples = 25\nvalue = [15, 10]"] ;
238 -> 239 ;
240 [label="admission_type_id <= 2.5\nentropy = 0.946\nsamples = 11\nvalue = [4, 7]"] ;
239 -> 240 ;
241 [label="entropy = 0.0\nsamples = 7\nvalue = [0, 7]"] ;
240 -> 241 ;
242 [label="entropy = 0.0\nsamples = 4\nvalue = [4, 0]"] ;
240 -> 242 ;
243 [label="medical_specialty <= 23.5\nentropy = 0.75\nsamples = 14\nvalue = [11, 3]"] ;
239 -> 243 ;
244 [label="discharge_disposition_id <= 2.5\nentropy = 0.619\nsamples = 13\nvalue = [11, 2]"] ;
243 -> 244 ;
245 [label="entropy = 0.0\nsamples = 7\nvalue = [7, 0]"] ;
244 -> 245 ;
246 [label="age_80 <= 0.5\nentropy = 0.918\nsamples = 6\nvalue = [4, 2]"] ;
244 -> 246 ;
247 [label="number_diagnoses <= 3.5\nentropy = 0.722\nsamples = 5\nvalue = [4, 1]"] ;
246 -> 247 ;
248 [label="entropy = 0.0\nsamples = 1\nvalue = [0, 1]"] ;
247 -> 248 ;
249 [label="entropy = 0.0\nsamples = 4\nvalue = [4, 0]"] ;
247 -> 249 ;
250 [label="entropy = 0.0\nsamples = 1\nvalue = [0, 1]"] ;
246 -> 250 ;
251 [label="entropy = 0.0\nsamples = 1\nvalue = [0, 1]"] ;
243 -> 251 ;
252 [label="entropy = 0.0\nsamples = 6\nvalue = [6, 0]"] ;
238 -> 252 ;
253 [label="entropy = 0.0\nsamples = 10\nvalue = [10, 0]"] ;
237 -> 253 ;
254 [label="entropy = 0.0\nsamples = 12\nvalue = [12, 0]"] ;
236 -> 254 ;
255 [label="age_60 <= 0.5\nentropy = 0.722\nsamples = 5\nvalue = [1, 4]"] ;
229 -> 255 ;
256 [label="entropy = 0.0\nsamples = 4\nvalue = [0, 4]"] ;
255 -> 256 ;
257 [label="entropy = 0.0\nsamples = 1\nvalue = [1, 0]"] ;
255 -> 257 ;
258 [label="admission_type_id <= 1.5\nentropy = 0.995\nsamples = 61\nvalue = [33, 28]"] ;
228 -> 258 ;
259 [label="entropy = 0.0\nsamples = 6\nvalue = [6, 0]"] ;
258 -> 259 ;
260 [label="num_medications <= 6.5\nentropy = 1.0\nsamples = 55\nvalue = [27, 28]"] ;
258 -> 260 ;
261 [label="entropy = 0.0\nsamples = 3\nvalue = [3, 0]"] ;
260 -> 261 ;
262 [label="num_medications <= 11.5\nentropy = 0.996\nsamples = 52\nvalue = [24, 28]"] ;
260 -> 262 ;
263 [label="num_lab_procedures <= 66.0\nentropy = 0.439\nsamples = 11\nvalue = [1, 10]"] ;
262 -> 263 ;
264 [label="entropy = 0.0\nsamples = 9\nvalue = [0, 9]"] ;
263 -> 264 ;
265 [label="insulin <= 2.0\nentropy = 1.0\nsamples = 2\nvalue = [1, 1]"] ;
263 -> 265 ;
266 [label="entropy = 0.0\nsamples = 1\nvalue = [1, 0]"] ;
265 -> 266 ;
267 [label="entropy = 0.0\nsamples = 1\nvalue = [0, 1]"] ;
265 -> 267 ;
268 [label="num_medications <= 16.5\nentropy = 0.989\nsamples = 41\nvalue = [23, 18]"] ;
262 -> 268 ;
269 [label="num_procedures <= 2.5\nentropy = 0.787\nsamples = 17\nvalue = [13, 4]"] ;
268 -> 269 ;
270 [label="insulin <= 0.5\nentropy = 0.918\nsamples = 12\nvalue = [8, 4]"] ;
269 -> 270 ;
271 [label="num_lab_procedures <= 50.5\nentropy = 0.722\nsamples = 10\nvalue = [8, 2]"] ;
270 -> 271 ;
272 [label="discharge_disposition_id <= 1.5\nentropy = 1.0\nsamples = 4\nvalue = [2, 2]"] ;
271 -> 272 ;
273 [label="entropy = 0.0\nsamples = 2\nvalue = [0, 2]"] ;
272 -> 273 ;
274 [label="entropy = 0.0\nsamples = 2\nvalue = [2, 0]"] ;
272 -> 274 ;
275 [label="entropy = 0.0\nsamples = 6\nvalue = [6, 0]"] ;
271 -> 275 ;
276 [label="entropy = 0.0\nsamples = 2\nvalue = [0, 2]"] ;
270 -> 276 ;
277 [label="entropy = 0.0\nsamples = 5\nvalue = [5, 0]"] ;
269 -> 277 ;
278 [label="age_80 <= 0.5\nentropy = 0.98\nsamples = 24\nvalue = [10, 14]"] ;
268 -> 278 ;
279 [label="num_medications <= 24.5\nentropy = 0.946\nsamples = 22\nvalue = [8, 14]"] ;
278 -> 279 ;
280 [label="insulin <= 0.5\nentropy = 0.722\nsamples = 15\nvalue = [3, 12]"] ;
279 -> 280 ;
281 [label="number_diagnoses <= 6.5\nentropy = 0.918\nsamples = 9\nvalue = [3, 6]"] ;
280 -> 281 ;
282 [label="age_60 <= 0.5\nentropy = 0.592\nsamples = 7\nvalue = [1, 6]"] ;
281 -> 282 ;
283 [label="entropy = 0.0\nsamples = 6\nvalue = [0, 6]"] ;
282 -> 283 ;
284 [label="entropy = 0.0\nsamples = 1\nvalue = [1, 0]"] ;
282 -> 284 ;
285 [label="entropy = 0.0\nsamples = 2\nvalue = [2, 0]"] ;
281 -> 285 ;
286 [label="entropy = 0.0\nsamples = 6\nvalue = [0, 6]"] ;
280 -> 286 ;
287 [label="insulin <= 2.5\nentropy = 0.863\nsamples = 7\nvalue = [5, 2]"] ;
279 -> 287 ;
288 [label="entropy = 0.0\nsamples = 4\nvalue = [4, 0]"] ;
287 -> 288 ;
289 [label="num_lab_procedures <= 55.0\nentropy = 0.918\nsamples = 3\nvalue = [1, 2]"] ;
287 -> 289 ;
290 [label="entropy = 0.0\nsamples = 1\nvalue = [1, 0]"] ;
289 -> 290 ;
291 [label="entropy = 0.0\nsamples = 2\nvalue = [0, 2]"] ;
289 -> 291 ;
292 [label="entropy = 0.0\nsamples = 2\nvalue = [2, 0]"] ;
278 -> 292 ;
293 [label="entropy = 0.0\nsamples = 5\nvalue = [5, 0]"] ;
227 -> 293 ;
294 [label="entropy = 0.0\nsamples = 5\nvalue = [5, 0]"] ;
226 -> 294 ;
295 [label="discharge_disposition_id <= 1.5\nentropy = 0.659\nsamples = 41\nvalue = [34, 7]"] ;
225 -> 295 ;
296 [label="num_lab_procedures <= 35.0\nentropy = 0.887\nsamples = 23\nvalue = [16, 7]"] ;
295 -> 296 ;
297 [label="entropy = 0.0\nsamples = 2\nvalue = [0, 2]"] ;
296 -> 297 ;
298 [label="num_lab_procedures <= 43.0\nentropy = 0.792\nsamples = 21\nvalue = [16, 5]"] ;
296 -> 298 ;
299 [label="entropy = 0.0\nsamples = 6\nvalue = [6, 0]"] ;
298 -> 299 ;
300 [label="medical_specialty <= 8.0\nentropy = 0.918\nsamples = 15\nvalue = [10, 5]"] ;
298 -> 300 ;
301 [label="insulin <= 1.5\nentropy = 0.722\nsamples = 10\nvalue = [8, 2]"] ;
300 -> 301 ;
302 [label="entropy = 0.0\nsamples = 7\nvalue = [7, 0]"] ;
301 -> 302 ;
303 [label="age_60 <= 0.5\nentropy = 0.918\nsamples = 3\nvalue = [1, 2]"] ;
301 -> 303 ;
304 [label="entropy = 0.0\nsamples = 2\nvalue = [0, 2]"] ;
303 -> 304 ;
305 [label="entropy = 0.0\nsamples = 1\nvalue = [1, 0]"] ;
303 -> 305 ;
306 [label="time_in_hospital <= 3.5\nentropy = 0.971\nsamples = 5\nvalue = [2, 3]"] ;
300 -> 306 ;
307 [label="entropy = 0.0\nsamples = 2\nvalue = [0, 2]"] ;
306 -> 307 ;
308 [label="medical_specialty <= 9.5\nentropy = 0.918\nsamples = 3\nvalue = [2, 1]"] ;
306 -> 308 ;
309 [label="entropy = 0.0\nsamples = 1\nvalue = [0, 1]"] ;
308 -> 309 ;
310 [label="entropy = 0.0\nsamples = 2\nvalue = [2, 0]"] ;
308 -> 310 ;
311 [label="entropy = 0.0\nsamples = 18\nvalue = [18, 0]"] ;
295 -> 311 ;
312 [label="insulin <= 2.5\nentropy = 0.996\nsamples = 39\nvalue = [18, 21]"] ;
224 -> 312 ;
313 [label="medical_specialty <= 16.5\nentropy = 0.999\nsamples = 35\nvalue = [18, 17]"] ;
312 -> 313 ;
314 [label="medical_specialty <= 6.0\nentropy = 0.989\nsamples = 32\nvalue = [18, 14]"] ;
313 -> 314 ;
315 [label="time_in_hospital <= 9.5\nentropy = 0.985\nsamples = 21\nvalue = [9, 12]"] ;
314 -> 315 ;
316 [label="age_70 <= 0.5\nentropy = 0.592\nsamples = 7\nvalue = [1, 6]"] ;
315 -> 316 ;
317 [label="entropy = 0.0\nsamples = 6\nvalue = [0, 6]"] ;
316 -> 317 ;
318 [label="entropy = 0.0\nsamples = 1\nvalue = [1, 0]"] ;
316 -> 318 ;
319 [label="num_medications <= 45.0\nentropy = 0.985\nsamples = 14\nvalue = [8, 6]"] ;
315 -> 319 ;
320 [label="num_medications <= 38.5\nentropy = 0.994\nsamples = 11\nvalue = [5, 6]"] ;
319 -> 320 ;
321 [label="time_in_hospital <= 12.5\nentropy = 0.991\nsamples = 9\nvalue = [5, 4]"] ;
320 -> 321 ;
322 [label="entropy = 0.0\nsamples = 3\nvalue = [3, 0]"] ;
321 -> 322 ;
323 [label="admission_source_id <= 3.0\nentropy = 0.918\nsamples = 6\nvalue = [2, 4]"] ;
321 -> 323 ;
324 [label="num_lab_procedures <= 40.0\nentropy = 0.722\nsamples = 5\nvalue = [1, 4]"] ;
323 -> 324 ;
325 [label="entropy = 0.0\nsamples = 1\nvalue = [1, 0]"] ;
324 -> 325 ;
326 [label="entropy = 0.0\nsamples = 4\nvalue = [0, 4]"] ;
324 -> 326 ;
327 [label="entropy = 0.0\nsamples = 1\nvalue = [1, 0]"] ;
323 -> 327 ;
328 [label="entropy = 0.0\nsamples = 2\nvalue = [0, 2]"] ;
320 -> 328 ;
329 [label="entropy = 0.0\nsamples = 3\nvalue = [3, 0]"] ;
319 -> 329 ;
330 [label="age_40 <= 0.5\nentropy = 0.684\nsamples = 11\nvalue = [9, 2]"] ;
314 -> 330 ;
331 [label="entropy = 0.0\nsamples = 8\nvalue = [8, 0]"] ;
330 -> 331 ;
332 [label="num_lab_procedures <= 58.5\nentropy = 0.918\nsamples = 3\nvalue = [1, 2]"] ;
330 -> 332 ;
333 [label="entropy = 0.0\nsamples = 1\nvalue = [1, 0]"] ;
332 -> 333 ;
334 [label="entropy = 0.0\nsamples = 2\nvalue = [0, 2]"] ;
332 -> 334 ;
335 [label="entropy = 0.0\nsamples = 3\nvalue = [0, 3]"] ;
313 -> 335 ;
336 [label="entropy = 0.0\nsamples = 4\nvalue = [0, 4]"] ;
312 -> 336 ;
337 [label="number_diagnoses <= 4.5\nentropy = 0.599\nsamples = 48\nvalue = [41, 7]"] ;
223 -> 337 ;
338 [label="race <= 0.5\nentropy = 0.94\nsamples = 14\nvalue = [9, 5]"] ;
337 -> 338 ;
339 [label="time_in_hospital <= 3.5\nentropy = 0.811\nsamples = 12\nvalue = [9, 3]"] ;
338 -> 339 ;
340 [label="num_medications <= 16.5\nentropy = 0.985\nsamples = 7\nvalue = [4, 3]"] ;
339 -> 340 ;
341 [label="discharge_disposition_id <= 3.5\nentropy = 0.722\nsamples = 5\nvalue = [4, 1]"] ;
340 -> 341 ;
342 [label="entropy = 0.0\nsamples = 3\nvalue = [3, 0]"] ;
341 -> 342 ;
343 [label="change <= 0.5\nentropy = 1.0\nsamples = 2\nvalue = [1, 1]"] ;
341 -> 343 ;
344 [label="entropy = 0.0\nsamples = 1\nvalue = [0, 1]"] ;
343 -> 344 ;
345 [label="entropy = 0.0\nsamples = 1\nvalue = [1, 0]"] ;
343 -> 345 ;
346 [label="entropy = 0.0\nsamples = 2\nvalue = [0, 2]"] ;
340 -> 346 ;
347 [label="entropy = 0.0\nsamples = 5\nvalue = [5, 0]"] ;
339 -> 347 ;
348 [label="entropy = 0.0\nsamples = 2\nvalue = [0, 2]"] ;
338 -> 348 ;
349 [label="num_lab_procedures <= 48.5\nentropy = 0.323\nsamples = 34\nvalue = [32, 2]"] ;
337 -> 349 ;
350 [label="time_in_hospital <= 5.5\nentropy = 0.592\nsamples = 14\nvalue = [12, 2]"] ;
349 -> 350 ;
351 [label="number_outpatient <= 0.5\nentropy = 0.391\nsamples = 13\nvalue = [12, 1]"] ;
350 -> 351 ;
352 [label="entropy = 0.0\nsamples = 12\nvalue = [12, 0]"] ;
351 -> 352 ;
353 [label="entropy = 0.0\nsamples = 1\nvalue = [0, 1]"] ;
351 -> 353 ;
354 [label="entropy = 0.0\nsamples = 1\nvalue = [0, 1]"] ;
350 -> 354 ;
355 [label="entropy = 0.0\nsamples = 20\nvalue = [20, 0]"] ;
349 -> 355 ;
356 [label="discharge_disposition_id <= 9.5\nentropy = 0.995\nsamples = 404\nvalue = [218, 186]"] ;
2 -> 356 ;
357 [label="admission_source_id <= 3.5\nentropy = 0.998\nsamples = 395\nvalue = [209, 186]"] ;
356 -> 357 ;
358 [label="discharge_disposition_id <= 2.5\nentropy = 1.0\nsamples = 315\nvalue = [154, 161]"] ;
357 -> 358 ;
359 [label="admission_type_id <= 2.5\nentropy = 0.998\nsamples = 256\nvalue = [135, 121]"] ;
358 -> 359 ;
360 [label="num_medications <= 4.5\nentropy = 0.998\nsamples = 191\nvalue = [91, 100]"] ;
359 -> 360 ;
361 [label="entropy = 0.0\nsamples = 4\nvalue = [4, 0]"] ;
360 -> 361 ;
362 [label="diag_3 <= 0.5\nentropy = 0.997\nsamples = 187\nvalue = [87, 100]"] ;
360 -> 362 ;
363 [label="entropy = 0.0\nsamples = 4\nvalue = [4, 0]"] ;
362 -> 363 ;
364 [label="num_lab_procedures <= 68.5\nentropy = 0.994\nsamples = 183\nvalue = [83, 100]"] ;
362 -> 364 ;
365 [label="medical_specialty <= 2.5\nentropy = 0.982\nsamples = 157\nvalue = [66, 91]"] ;
364 -> 365 ;
366 [label="diag_3 <= 9.0\nentropy = 0.845\nsamples = 55\nvalue = [15, 40]"] ;
365 -> 366 ;
367 [label="time_in_hospital <= 6.5\nentropy = 0.804\nsamples = 53\nvalue = [13, 40]"] ;
366 -> 367 ;
368 [label="glimepiride <= 0.5\nentropy = 0.859\nsamples = 46\nvalue = [13, 33]"] ;
367 -> 368 ;
369 [label="age_50 <= 0.5\nentropy = 0.893\nsamples = 42\nvalue = [13, 29]"] ;
368 -> 369 ;
370 [label="metformin <= 0.5\nentropy = 0.799\nsamples = 33\nvalue = [8, 25]"] ;
369 -> 370 ;
371 [label="discharge_disposition_id <= 1.5\nentropy = 0.619\nsamples = 26\nvalue = [4, 22]"] ;
370 -> 371 ;
372 [label="entropy = 0.0\nsamples = 14\nvalue = [0, 14]"] ;
371 -> 372 ;
373 [label="num_lab_procedures <= 32.0\nentropy = 0.918\nsamples = 12\nvalue = [4, 8]"] ;
371 -> 373 ;
374 [label="entropy = 0.0\nsamples = 2\nvalue = [2, 0]"] ;
373 -> 374 ;
375 [label="glyburide <= 0.5\nentropy = 0.722\nsamples = 10\nvalue = [2, 8]"] ;
373 -> 375 ;
376 [label="entropy = 0.0\nsamples = 6\nvalue = [0, 6]"] ;
375 -> 376 ;
377 [label="num_lab_procedures <= 53.0\nentropy = 1.0\nsamples = 4\nvalue = [2, 2]"] ;
375 -> 377 ;
378 [label="entropy = 0.0\nsamples = 2\nvalue = [0, 2]"] ;
377 -> 378 ;
379 [label="entropy = 0.0\nsamples = 2\nvalue = [2, 0]"] ;
377 -> 379 ;
380 [label="age_60 <= 0.5\nentropy = 0.985\nsamples = 7\nvalue = [4, 3]"] ;
370 -> 380 ;
381 [label="num_procedures <= 4.5\nentropy = 0.722\nsamples = 5\nvalue = [4, 1]"] ;
380 -> 381 ;
382 [label="entropy = 0.0\nsamples = 4\nvalue = [4, 0]"] ;
381 -> 382 ;
383 [label="entropy = 0.0\nsamples = 1\nvalue = [0, 1]"] ;
381 -> 383 ;
384 [label="entropy = 0.0\nsamples = 2\nvalue = [0, 2]"] ;
380 -> 384 ;
385 [label="num_medications <= 16.0\nentropy = 0.991\nsamples = 9\nvalue = [5, 4]"] ;
369 -> 385 ;
386 [label="gender <= 0.5\nentropy = 0.863\nsamples = 7\nvalue = [5, 2]"] ;
385 -> 386 ;
387 [label="num_medications <= 13.5\nentropy = 0.918\nsamples = 3\nvalue = [1, 2]"] ;
386 -> 387 ;
388 [label="entropy = 0.0\nsamples = 2\nvalue = [0, 2]"] ;
387 -> 388 ;
389 [label="entropy = 0.0\nsamples = 1\nvalue = [1, 0]"] ;
387 -> 389 ;
390 [label="entropy = 0.0\nsamples = 4\nvalue = [4, 0]"] ;
386 -> 390 ;
391 [label="entropy = 0.0\nsamples = 2\nvalue = [0, 2]"] ;
385 -> 391 ;
392 [label="entropy = 0.0\nsamples = 4\nvalue = [0, 4]"] ;
368 -> 392 ;
393 [label="entropy = 0.0\nsamples = 7\nvalue = [0, 7]"] ;
367 -> 393 ;
394 [label="entropy = 0.0\nsamples = 2\nvalue = [2, 0]"] ;
366 -> 394 ;
395 [label="time_in_hospital <= 10.5\nentropy = 1.0\nsamples = 102\nvalue = [51, 51]"] ;
365 -> 395 ;
396 [label="num_lab_procedures <= 32.5\nentropy = 0.999\nsamples = 98\nvalue = [51, 47]"] ;
395 -> 396 ;
397 [label="admission_type_id <= 1.5\nentropy = 0.918\nsamples = 24\nvalue = [8, 16]"] ;
396 -> 397 ;
398 [label="entropy = 0.0\nsamples = 2\nvalue = [2, 0]"] ;
397 -> 398 ;
399 [label="time_in_hospital <= 3.5\nentropy = 0.845\nsamples = 22\nvalue = [6, 16]"] ;
397 -> 399 ;
400 [label="discharge_disposition_id <= 1.5\nentropy = 0.937\nsamples = 17\nvalue = [6, 11]"] ;
399 -> 400 ;
401 [label="race <= 0.5\nentropy = 0.985\nsamples = 14\nvalue = [6, 8]"] ;
400 -> 401 ;
402 [label="num_procedures <= 1.5\nentropy = 0.994\nsamples = 11\nvalue = [6, 5]"] ;
401 -> 402 ;
403 [label="entropy = 0.0\nsamples = 3\nvalue = [3, 0]"] ;
402 -> 403 ;
404 [label="insulin <= 0.5\nentropy = 0.954\nsamples = 8\nvalue = [3, 5]"] ;
402 -> 404 ;
405 [label="entropy = 0.0\nsamples = 2\nvalue = [0, 2]"] ;
404 -> 405 ;
406 [label="admission_source_id <= 1.5\nentropy = 1.0\nsamples = 6\nvalue = [3, 3]"] ;
404 -> 406 ;
407 [label="age_60 <= 0.5\nentropy = 0.811\nsamples = 4\nvalue = [3, 1]"] ;
406 -> 407 ;
408 [label="entropy = 0.0\nsamples = 3\nvalue = [3, 0]"] ;
407 -> 408 ;
409 [label="entropy = 0.0\nsamples = 1\nvalue = [0, 1]"] ;
407 -> 409 ;
410 [label="entropy = 0.0\nsamples = 2\nvalue = [0, 2]"] ;
406 -> 410 ;
411 [label="entropy = 0.0\nsamples = 3\nvalue = [0, 3]"] ;
401 -> 411 ;
412 [label="entropy = 0.0\nsamples = 3\nvalue = [0, 3]"] ;
400 -> 412 ;
413 [label="entropy = 0.0\nsamples = 5\nvalue = [0, 5]"] ;
399 -> 413 ;
414 [label="num_lab_procedures <= 34.5\nentropy = 0.981\nsamples = 74\nvalue = [43, 31]"] ;
396 -> 414 ;
415 [label="time_in_hospital <= 5.0\nentropy = 0.503\nsamples = 9\nvalue = [8, 1]"] ;
414 -> 415 ;
416 [label="entropy = 0.0\nsamples = 8\nvalue = [8, 0]"] ;
415 -> 416 ;
417 [label="entropy = 0.0\nsamples = 1\nvalue = [0, 1]"] ;
415 -> 417 ;
418 [label="metformin <= 0.5\nentropy = 0.996\nsamples = 65\nvalue = [35, 30]"] ;
414 -> 418 ;
419 [label="medical_specialty <= 16.0\nentropy = 0.999\nsamples = 62\nvalue = [32, 30]"] ;
418 -> 419 ;
420 [label="medical_specialty <= 8.5\nentropy = 0.995\nsamples = 59\nvalue = [32, 27]"] ;
419 -> 420 ;
421 [label="num_medications <= 26.0\nentropy = 0.99\nsamples = 43\nvalue = [19, 24]"] ;
420 -> 421 ;
422 [label="medical_specialty <= 7.5\nentropy = 0.961\nsamples = 39\nvalue = [15, 24]"] ;
421 -> 422 ;
423 [label="admission_type_id <= 1.5\nentropy = 0.985\nsamples = 35\nvalue = [15, 20]"] ;
422 -> 423 ;
424 [label="entropy = 0.0\nsamples = 3\nvalue = [0, 3]"] ;
423 -> 424 ;
425 [label="num_medications <= 22.5\nentropy = 0.997\nsamples = 32\nvalue = [15, 17]"] ;
423 -> 425 ;
426 [label="glyburide <= 0.5\nentropy = 0.999\nsamples = 29\nvalue = [15, 14]"] ;
425 -> 426 ;
427 [label="time_in_hospital <= 4.5\nentropy = 0.991\nsamples = 27\nvalue = [15, 12]"] ;
426 -> 427 ;
428 [label="age_70 <= 0.5\nentropy = 0.993\nsamples = 20\nvalue = [9, 11]"] ;
427 -> 428 ;
429 [label="num_procedures <= 0.5\nentropy = 0.722\nsamples = 10\nvalue = [2, 8]"] ;
428 -> 429 ;
430 [label="entropy = 0.0\nsamples = 2\nvalue = [2, 0]"] ;
429 -> 430 ;
431 [label="entropy = 0.0\nsamples = 8\nvalue = [0, 8]"] ;
429 -> 431 ;
432 [label="num_lab_procedures <= 46.5\nentropy = 0.881\nsamples = 10\nvalue = [7, 3]"] ;
428 -> 432 ;
433 [label="discharge_disposition_id <= 1.5\nentropy = 1.0\nsamples = 6\nvalue = [3, 3]"] ;
432 -> 433 ;
434 [label="num_procedures <= 3.0\nentropy = 0.811\nsamples = 4\nvalue = [3, 1]"] ;
433 -> 434 ;
435 [label="entropy = 0.0\nsamples = 2\nvalue = [2, 0]"] ;
434 -> 435 ;
436 [label="admission_source_id <= 1.5\nentropy = 1.0\nsamples = 2\nvalue = [1, 1]"] ;
434 -> 436 ;
437 [label="entropy = 0.0\nsamples = 1\nvalue = [0, 1]"] ;
436 -> 437 ;
438 [label="entropy = 0.0\nsamples = 1\nvalue = [1, 0]"] ;
436 -> 438 ;
439 [label="entropy = 0.0\nsamples = 2\nvalue = [0, 2]"] ;
433 -> 439 ;
440 [label="entropy = 0.0\nsamples = 4\nvalue = [4, 0]"] ;
432 -> 440 ;
441 [label="num_lab_procedures <= 60.0\nentropy = 0.592\nsamples = 7\nvalue = [6, 1]"] ;
427 -> 441 ;
442 [label="entropy = 0.0\nsamples = 5\nvalue = [5, 0]"] ;
441 -> 442 ;
443 [label="race <= 0.5\nentropy = 1.0\nsamples = 2\nvalue = [1, 1]"] ;
441 -> 443 ;
444 [label="entropy = 0.0\nsamples = 1\nvalue = [1, 0]"] ;
443 -> 444 ;
445 [label="entropy = 0.0\nsamples = 1\nvalue = [0, 1]"] ;
443 -> 445 ;
446 [label="entropy = 0.0\nsamples = 2\nvalue = [0, 2]"] ;
426 -> 446 ;
447 [label="entropy = 0.0\nsamples = 3\nvalue = [0, 3]"] ;
425 -> 447 ;
448 [label="entropy = 0.0\nsamples = 4\nvalue = [0, 4]"] ;
422 -> 448 ;
449 [label="entropy = 0.0\nsamples = 4\nvalue = [4, 0]"] ;
421 -> 449 ;
450 [label="num_medications <= 26.0\nentropy = 0.696\nsamples = 16\nvalue = [13, 3]"] ;
420 -> 450 ;
451 [label="num_lab_procedures <= 39.0\nentropy = 0.371\nsamples = 14\nvalue = [13, 1]"] ;
450 -> 451 ;
452 [label="entropy = 0.0\nsamples = 1\nvalue = [0, 1]"] ;
451 -> 452 ;
453 [label="entropy = 0.0\nsamples = 13\nvalue = [13, 0]"] ;
451 -> 453 ;
454 [label="entropy = 0.0\nsamples = 2\nvalue = [0, 2]"] ;
450 -> 454 ;
455 [label="entropy = 0.0\nsamples = 3\nvalue = [0, 3]"] ;
419 -> 455 ;
456 [label="entropy = 0.0\nsamples = 3\nvalue = [3, 0]"] ;
418 -> 456 ;
457 [label="entropy = 0.0\nsamples = 4\nvalue = [0, 4]"] ;
395 -> 457 ;
458 [label="medical_specialty <= 1.5\nentropy = 0.931\nsamples = 26\nvalue = [17, 9]"] ;
364 -> 458 ;
459 [label="entropy = 0.0\nsamples = 6\nvalue = [6, 0]"] ;
458 -> 459 ;
460 [label="race <= 0.5\nentropy = 0.993\nsamples = 20\nvalue = [11, 9]"] ;
458 -> 460 ;
461 [label="number_diagnoses <= 8.5\nentropy = 0.989\nsamples = 16\nvalue = [7, 9]"] ;
460 -> 461 ;
462 [label="glyburide <= 2.0\nentropy = 0.722\nsamples = 5\nvalue = [4, 1]"] ;
461 -> 462 ;
463 [label="entropy = 0.0\nsamples = 4\nvalue = [4, 0]"] ;
462 -> 463 ;
464 [label="entropy = 0.0\nsamples = 1\nvalue = [0, 1]"] ;
462 -> 464 ;
465 [label="num_medications <= 20.5\nentropy = 0.845\nsamples = 11\nvalue = [3, 8]"] ;
461 -> 465 ;
466 [label="entropy = 0.0\nsamples = 4\nvalue = [0, 4]"] ;
465 -> 466 ;
467 [label="num_procedures <= 1.5\nentropy = 0.985\nsamples = 7\nvalue = [3, 4]"] ;
465 -> 467 ;
468 [label="entropy = 0.0\nsamples = 2\nvalue = [2, 0]"] ;
467 -> 468 ;
469 [label="num_lab_procedures <= 86.5\nentropy = 0.722\nsamples = 5\nvalue = [1, 4]"] ;
467 -> 469 ;
470 [label="entropy = 0.0\nsamples = 4\nvalue = [0, 4]"] ;
469 -> 470 ;
471 [label="entropy = 0.0\nsamples = 1\nvalue = [1, 0]"] ;
469 -> 471 ;
472 [label="entropy = 0.0\nsamples = 4\nvalue = [4, 0]"] ;
460 -> 472 ;
473 [label="num_procedures <= 0.5\nentropy = 0.908\nsamples = 65\nvalue = [44, 21]"] ;
359 -> 473 ;
474 [label="entropy = 0.0\nsamples = 6\nvalue = [6, 0]"] ;
473 -> 474 ;
475 [label="race <= 0.5\nentropy = 0.939\nsamples = 59\nvalue = [38, 21]"] ;
473 -> 475 ;
476 [label="num_procedures <= 1.5\nentropy = 0.976\nsamples = 49\nvalue = [29, 20]"] ;
475 -> 476 ;
477 [label="num_medications <= 16.0\nentropy = 0.881\nsamples = 10\nvalue = [3, 7]"] ;
476 -> 477 ;
478 [label="age_60 <= 0.5\nentropy = 0.811\nsamples = 4\nvalue = [3, 1]"] ;
477 -> 478 ;
479 [label="entropy = 0.0\nsamples = 3\nvalue = [3, 0]"] ;
478 -> 479 ;
480 [label="entropy = 0.0\nsamples = 1\nvalue = [0, 1]"] ;
478 -> 480 ;
481 [label="entropy = 0.0\nsamples = 6\nvalue = [0, 6]"] ;
477 -> 481 ;
482 [label="num_lab_procedures <= 68.0\nentropy = 0.918\nsamples = 39\nvalue = [26, 13]"] ;
476 -> 482 ;
483 [label="num_lab_procedures <= 47.5\nentropy = 0.845\nsamples = 33\nvalue = [24, 9]"] ;
482 -> 483 ;
484 [label="num_lab_procedures <= 43.5\nentropy = 0.985\nsamples = 14\nvalue = [8, 6]"] ;
483 -> 484 ;
485 [label="gender <= 0.5\nentropy = 0.764\nsamples = 9\nvalue = [7, 2]"] ;
484 -> 485 ;
486 [label="num_lab_procedures <= 35.0\nentropy = 0.918\nsamples = 3\nvalue = [1, 2]"] ;
485 -> 486 ;
487 [label="entropy = 0.0\nsamples = 2\nvalue = [0, 2]"] ;
486 -> 487 ;
488 [label="entropy = 0.0\nsamples = 1\nvalue = [1, 0]"] ;
486 -> 488 ;
489 [label="entropy = 0.0\nsamples = 6\nvalue = [6, 0]"] ;
485 -> 489 ;
490 [label="metformin <= 1.5\nentropy = 0.722\nsamples = 5\nvalue = [1, 4]"] ;
484 -> 490 ;
491 [label="entropy = 0.0\nsamples = 4\nvalue = [0, 4]"] ;
490 -> 491 ;
492 [label="entropy = 0.0\nsamples = 1\nvalue = [1, 0]"] ;
490 -> 492 ;
493 [label="num_lab_procedures <= 56.0\nentropy = 0.629\nsamples = 19\nvalue = [16, 3]"] ;
483 -> 493 ;
494 [label="entropy = 0.0\nsamples = 10\nvalue = [10, 0]"] ;
493 -> 494 ;
495 [label="num_lab_procedures <= 59.0\nentropy = 0.918\nsamples = 9\nvalue = [6, 3]"] ;
493 -> 495 ;
496 [label="entropy = 0.0\nsamples = 2\nvalue = [0, 2]"] ;
495 -> 496 ;
497 [label="time_in_hospital <= 11.5\nentropy = 0.592\nsamples = 7\nvalue = [6, 1]"] ;
495 -> 497 ;
498 [label="entropy = 0.0\nsamples = 6\nvalue = [6, 0]"] ;
497 -> 498 ;
499 [label="entropy = 0.0\nsamples = 1\nvalue = [0, 1]"] ;
497 -> 499 ;
500 [label="medical_specialty <= 4.0\nentropy = 0.918\nsamples = 6\nvalue = [2, 4]"] ;
482 -> 500 ;
501 [label="entropy = 0.0\nsamples = 2\nvalue = [2, 0]"] ;
500 -> 501 ;
502 [label="entropy = 0.0\nsamples = 4\nvalue = [0, 4]"] ;
500 -> 502 ;
503 [label="time_in_hospital <= 1.5\nentropy = 0.469\nsamples = 10\nvalue = [9, 1]"] ;
475 -> 503 ;
504 [label="entropy = 0.0\nsamples = 1\nvalue = [0, 1]"] ;
503 -> 504 ;
505 [label="entropy = 0.0\nsamples = 9\nvalue = [9, 0]"] ;
503 -> 505 ;
506 [label="time_in_hospital <= 13.5\nentropy = 0.907\nsamples = 59\nvalue = [19, 40]"] ;
358 -> 506 ;
507 [label="time_in_hospital <= 6.5\nentropy = 0.845\nsamples = 55\nvalue = [15, 40]"] ;
506 -> 507 ;
508 [label="metformin <= 0.5\nentropy = 0.996\nsamples = 26\nvalue = [12, 14]"] ;
507 -> 508 ;
509 [label="num_procedures <= 3.5\nentropy = 0.994\nsamples = 22\nvalue = [12, 10]"] ;
508 -> 509 ;
510 [label="gender <= 0.5\nentropy = 0.949\nsamples = 19\nvalue = [12, 7]"] ;
509 -> 510 ;
511 [label="num_medications <= 20.5\nentropy = 0.946\nsamples = 11\nvalue = [4, 7]"] ;
510 -> 511 ;
512 [label="insulin <= 2.0\nentropy = 0.544\nsamples = 8\nvalue = [1, 7]"] ;
511 -> 512 ;
513 [label="entropy = 0.0\nsamples = 7\nvalue = [0, 7]"] ;
512 -> 513 ;
514 [label="entropy = 0.0\nsamples = 1\nvalue = [1, 0]"] ;
512 -> 514 ;
515 [label="entropy = 0.0\nsamples = 3\nvalue = [3, 0]"] ;
511 -> 515 ;
516 [label="entropy = 0.0\nsamples = 8\nvalue = [8, 0]"] ;
510 -> 516 ;
517 [label="entropy = 0.0\nsamples = 3\nvalue = [0, 3]"] ;
509 -> 517 ;
518 [label="entropy = 0.0\nsamples = 4\nvalue = [0, 4]"] ;
508 -> 518 ;
519 [label="num_medications <= 33.5\nentropy = 0.48\nsamples = 29\nvalue = [3, 26]"] ;
507 -> 519 ;
520 [label="num_procedures <= 5.5\nentropy = 0.229\nsamples = 27\nvalue = [1, 26]"] ;
519 -> 520 ;
521 [label="entropy = 0.0\nsamples = 25\nvalue = [0, 25]"] ;
520 -> 521 ;
522 [label="num_medications <= 23.5\nentropy = 1.0\nsamples = 2\nvalue = [1, 1]"] ;
520 -> 522 ;
523 [label="entropy = 0.0\nsamples = 1\nvalue = [0, 1]"] ;
522 -> 523 ;
524 [label="entropy = 0.0\nsamples = 1\nvalue = [1, 0]"] ;
522 -> 524 ;
525 [label="entropy = 0.0\nsamples = 2\nvalue = [2, 0]"] ;
519 -> 525 ;
526 [label="entropy = 0.0\nsamples = 4\nvalue = [4, 0]"] ;
506 -> 526 ;
527 [label="race <= 2.5\nentropy = 0.896\nsamples = 80\nvalue = [55, 25]"] ;
357 -> 527 ;
528 [label="pioglitazone <= 0.5\nentropy = 0.855\nsamples = 75\nvalue = [54, 21]"] ;
527 -> 528 ;
529 [label="diag_1 <= 9.0\nentropy = 0.827\nsamples = 73\nvalue = [54, 19]"] ;
528 -> 529 ;
530 [label="admission_type_id <= 2.5\nentropy = 0.781\nsamples = 69\nvalue = [53, 16]"] ;
529 -> 530 ;
531 [label="admission_type_id <= 1.5\nentropy = 0.837\nsamples = 60\nvalue = [44, 16]"] ;
530 -> 531 ;
532 [label="entropy = 0.0\nsamples = 5\nvalue = [5, 0]"] ;
531 -> 532 ;
533 [label="num_medications <= 10.5\nentropy = 0.87\nsamples = 55\nvalue = [39, 16]"] ;
531 -> 533 ;
534 [label="entropy = 0.0\nsamples = 4\nvalue = [4, 0]"] ;
533 -> 534 ;
535 [label="num_medications <= 12.5\nentropy = 0.897\nsamples = 51\nvalue = [35, 16]"] ;
533 -> 535 ;
536 [label="insulin <= 0.5\nentropy = 0.918\nsamples = 6\nvalue = [2, 4]"] ;
535 -> 536 ;
537 [label="entropy = 0.0\nsamples = 2\nvalue = [2, 0]"] ;
536 -> 537 ;
538 [label="entropy = 0.0\nsamples = 4\nvalue = [0, 4]"] ;
536 -> 538 ;
539 [label="time_in_hospital <= 4.5\nentropy = 0.837\nsamples = 45\nvalue = [33, 12]"] ;
535 -> 539 ;
540 [label="diabetesMed <= 0.5\nentropy = 0.371\nsamples = 14\nvalue = [13, 1]"] ;
539 -> 540 ;
541 [label="entropy = 0.0\nsamples = 1\nvalue = [0, 1]"] ;
540 -> 541 ;
542 [label="entropy = 0.0\nsamples = 13\nvalue = [13, 0]"] ;
540 -> 542 ;
543 [label="num_medications <= 20.5\nentropy = 0.938\nsamples = 31\nvalue = [20, 11]"] ;
539 -> 543 ;
544 [label="diabetesMed <= 0.5\nentropy = 0.881\nsamples = 10\nvalue = [3, 7]"] ;
543 -> 544 ;
545 [label="entropy = 0.0\nsamples = 2\nvalue = [2, 0]"] ;
544 -> 545 ;
546 [label="num_medications <= 15.5\nentropy = 0.544\nsamples = 8\nvalue = [1, 7]"] ;
544 -> 546 ;
547 [label="gender <= 0.5\nentropy = 1.0\nsamples = 2\nvalue = [1, 1]"] ;
546 -> 547 ;
548 [label="entropy = 0.0\nsamples = 1\nvalue = [1, 0]"] ;
547 -> 548 ;
549 [label="entropy = 0.0\nsamples = 1\nvalue = [0, 1]"] ;
547 -> 549 ;
550 [label="entropy = 0.0\nsamples = 6\nvalue = [0, 6]"] ;
546 -> 550 ;
551 [label="num_medications <= 42.0\nentropy = 0.702\nsamples = 21\nvalue = [17, 4]"] ;
543 -> 551 ;
552 [label="time_in_hospital <= 5.5\nentropy = 0.503\nsamples = 18\nvalue = [16, 2]"] ;
551 -> 552 ;
553 [label="change <= 0.5\nentropy = 0.918\nsamples = 6\nvalue = [4, 2]"] ;
552 -> 553 ;
554 [label="entropy = 0.0\nsamples = 3\nvalue = [3, 0]"] ;
553 -> 554 ;
555 [label="age_50 <= 0.5\nentropy = 0.918\nsamples = 3\nvalue = [1, 2]"] ;
553 -> 555 ;
556 [label="entropy = 0.0\nsamples = 1\nvalue = [1, 0]"] ;
555 -> 556 ;
557 [label="entropy = 0.0\nsamples = 2\nvalue = [0, 2]"] ;
555 -> 557 ;
558 [label="entropy = 0.0\nsamples = 12\nvalue = [12, 0]"] ;
552 -> 558 ;
559 [label="num_lab_procedures <= 75.0\nentropy = 0.918\nsamples = 3\nvalue = [1, 2]"] ;
551 -> 559 ;
560 [label="entropy = 0.0\nsamples = 2\nvalue = [0, 2]"] ;
559 -> 560 ;
561 [label="entropy = 0.0\nsamples = 1\nvalue = [1, 0]"] ;
559 -> 561 ;
562 [label="entropy = 0.0\nsamples = 9\nvalue = [9, 0]"] ;
530 -> 562 ;
563 [label="age_70 <= 0.5\nentropy = 0.811\nsamples = 4\nvalue = [1, 3]"] ;
529 -> 563 ;
564 [label="entropy = 0.0\nsamples = 3\nvalue = [0, 3]"] ;
563 -> 564 ;
565 [label="entropy = 0.0\nsamples = 1\nvalue = [1, 0]"] ;
563 -> 565 ;
566 [label="entropy = 0.0\nsamples = 2\nvalue = [0, 2]"] ;
528 -> 566 ;
567 [label="change <= 0.5\nentropy = 0.722\nsamples = 5\nvalue = [1, 4]"] ;
527 -> 567 ;
568 [label="entropy = 0.0\nsamples = 1\nvalue = [1, 0]"] ;
567 -> 568 ;
569 [label="entropy = 0.0\nsamples = 4\nvalue = [0, 4]"] ;
567 -> 569 ;
570 [label="entropy = 0.0\nsamples = 9\nvalue = [9, 0]"] ;
356 -> 570 ;
571 [label="discharge_disposition_id <= 10.5\nentropy = 1.0\nsamples = 1929\nvalue = [964, 965]"] ;
1 -> 571 ;
572 [label="admission_type_id <= 1.5\nentropy = 1.0\nsamples = 1889\nvalue = [925, 964]"] ;
571 -> 572 ;
573 [label="number_diagnoses <= 7.5\nentropy = 0.993\nsamples = 1173\nvalue = [644, 529]"] ;
572 -> 573 ;
574 [label="glipizide <= 2.5\nentropy = 0.957\nsamples = 643\nvalue = [400, 243]"] ;
573 -> 574 ;
575 [label="num_medications <= 4.5\nentropy = 0.952\nsamples = 637\nvalue = [400, 237]"] ;
574 -> 575 ;
576 [label="rosiglitazone <= 0.5\nentropy = 0.694\nsamples = 59\nvalue = [48, 11]"] ;
575 -> 576 ;
577 [label="num_lab_procedures <= 42.5\nentropy = 0.663\nsamples = 58\nvalue = [48, 10]"] ;
576 -> 577 ;
578 [label="age_30 <= 0.5\nentropy = 0.381\nsamples = 27\nvalue = [25, 2]"] ;
577 -> 578 ;
579 [label="entropy = 0.0\nsamples = 22\nvalue = [22, 0]"] ;
578 -> 579 ;
580 [label="diabetesMed <= 0.5\nentropy = 0.971\nsamples = 5\nvalue = [3, 2]"] ;
578 -> 580 ;
581 [label="time_in_hospital <= 1.5\nentropy = 0.918\nsamples = 3\nvalue = [1, 2]"] ;
580 -> 581 ;
582 [label="entropy = 0.0\nsamples = 2\nvalue = [0, 2]"] ;
581 -> 582 ;
583 [label="entropy = 0.0\nsamples = 1\nvalue = [1, 0]"] ;
581 -> 583 ;
584 [label="entropy = 0.0\nsamples = 2\nvalue = [2, 0]"] ;
580 -> 584 ;
585 [label="race <= 0.5\nentropy = 0.824\nsamples = 31\nvalue = [23, 8]"] ;
577 -> 585 ;
586 [label="time_in_hospital <= 1.5\nentropy = 0.667\nsamples = 23\nvalue = [19, 4]"] ;
585 -> 586 ;
587 [label="entropy = 0.0\nsamples = 8\nvalue = [8, 0]"] ;
586 -> 587 ;
588 [label="glipizide <= 0.5\nentropy = 0.837\nsamples = 15\nvalue = [11, 4]"] ;
586 -> 588 ;
589 [label="num_medications <= 1.5\nentropy = 0.75\nsamples = 14\nvalue = [11, 3]"] ;
588 -> 589 ;
590 [label="entropy = 0.0\nsamples = 1\nvalue = [0, 1]"] ;
589 -> 590 ;
591 [label="gender <= 0.5\nentropy = 0.619\nsamples = 13\nvalue = [11, 2]"] ;
589 -> 591 ;
592 [label="entropy = 0.0\nsamples = 5\nvalue = [5, 0]"] ;
591 -> 592 ;
593 [label="num_lab_procedures <= 56.0\nentropy = 0.811\nsamples = 8\nvalue = [6, 2]"] ;
591 -> 593 ;
594 [label="age_80 <= 0.5\nentropy = 1.0\nsamples = 4\nvalue = [2, 2]"] ;
593 -> 594 ;
595 [label="age_60 <= 0.5\nentropy = 0.918\nsamples = 3\nvalue = [1, 2]"] ;
594 -> 595 ;
596 [label="entropy = 0.0\nsamples = 2\nvalue = [0, 2]"] ;
595 -> 596 ;
597 [label="entropy = 0.0\nsamples = 1\nvalue = [1, 0]"] ;
595 -> 597 ;
598 [label="entropy = 0.0\nsamples = 1\nvalue = [1, 0]"] ;
594 -> 598 ;
599 [label="entropy = 0.0\nsamples = 4\nvalue = [4, 0]"] ;
593 -> 599 ;
600 [label="entropy = 0.0\nsamples = 1\nvalue = [0, 1]"] ;
588 -> 600 ;
601 [label="number_diagnoses <= 5.0\nentropy = 1.0\nsamples = 8\nvalue = [4, 4]"] ;
585 -> 601 ;
602 [label="num_lab_procedures <= 45.5\nentropy = 0.918\nsamples = 6\nvalue = [4, 2]"] ;
601 -> 602 ;
603 [label="metformin <= 1.5\nentropy = 0.918\nsamples = 3\nvalue = [1, 2]"] ;
602 -> 603 ;
604 [label="entropy = 0.0\nsamples = 2\nvalue = [0, 2]"] ;
603 -> 604 ;
605 [label="entropy = 0.0\nsamples = 1\nvalue = [1, 0]"] ;
603 -> 605 ;
606 [label="entropy = 0.0\nsamples = 3\nvalue = [3, 0]"] ;
602 -> 606 ;
607 [label="entropy = 0.0\nsamples = 2\nvalue = [0, 2]"] ;
601 -> 607 ;
608 [label="entropy = 0.0\nsamples = 1\nvalue = [0, 1]"] ;
576 -> 608 ;
609 [label="medical_specialty <= 1.5\nentropy = 0.965\nsamples = 578\nvalue = [352, 226]"] ;
575 -> 609 ;
610 [label="num_medications <= 9.5\nentropy = 0.875\nsamples = 149\nvalue = [105, 44]"] ;
609 -> 610 ;
611 [label="age_30 <= 0.5\nentropy = 0.717\nsamples = 76\nvalue = [61, 15]"] ;
610 -> 611 ;
612 [label="discharge_disposition_id <= 4.5\nentropy = 0.767\nsamples = 67\nvalue = [52, 15]"] ;
611 -> 612 ;
613 [label="num_lab_procedures <= 28.5\nentropy = 0.722\nsamples = 65\nvalue = [52, 13]"] ;
612 -> 613 ;
614 [label="entropy = 0.0\nsamples = 2\nvalue = [0, 2]"] ;
613 -> 614 ;
615 [label="diag_2 <= 0.5\nentropy = 0.668\nsamples = 63\nvalue = [52, 11]"] ;
613 -> 615 ;
616 [label="entropy = 0.0\nsamples = 1\nvalue = [0, 1]"] ;
615 -> 616 ;
617 [label="num_lab_procedures <= 65.0\nentropy = 0.637\nsamples = 62\nvalue = [52, 10]"] ;
615 -> 617 ;
618 [label="num_medications <= 8.5\nentropy = 0.579\nsamples = 58\nvalue = [50, 8]"] ;
617 -> 618 ;
619 [label="number_diagnoses <= 4.5\nentropy = 0.667\nsamples = 46\nvalue = [38, 8]"] ;
618 -> 619 ;
620 [label="change <= 0.5\nentropy = 0.402\nsamples = 25\nvalue = [23, 2]"] ;
619 -> 620 ;
621 [label="num_medications <= 5.5\nentropy = 0.619\nsamples = 13\nvalue = [11, 2]"] ;
620 -> 621 ;
622 [label="num_lab_procedures <= 45.5\nentropy = 1.0\nsamples = 2\nvalue = [1, 1]"] ;
621 -> 622 ;
623 [label="entropy = 0.0\nsamples = 1\nvalue = [0, 1]"] ;
622 -> 623 ;
624 [label="entropy = 0.0\nsamples = 1\nvalue = [1, 0]"] ;
622 -> 624 ;
625 [label="age_10 <= 0.5\nentropy = 0.439\nsamples = 11\nvalue = [10, 1]"] ;
621 -> 625 ;
626 [label="entropy = 0.0\nsamples = 8\nvalue = [8, 0]"] ;
625 -> 626 ;
627 [label="race <= 0.5\nentropy = 0.918\nsamples = 3\nvalue = [2, 1]"] ;
625 -> 627 ;
628 [label="entropy = 0.0\nsamples = 2\nvalue = [2, 0]"] ;
627 -> 628 ;
629 [label="entropy = 0.0\nsamples = 1\nvalue = [0, 1]"] ;
627 -> 629 ;
630 [label="entropy = 0.0\nsamples = 12\nvalue = [12, 0]"] ;
620 -> 630 ;
631 [label="number_diagnoses <= 6.5\nentropy = 0.863\nsamples = 21\nvalue = [15, 6]"] ;
619 -> 631 ;
632 [label="gender <= 0.5\nentropy = 0.996\nsamples = 13\nvalue = [7, 6]"] ;
631 -> 632 ;
633 [label="entropy = 0.0\nsamples = 4\nvalue = [0, 4]"] ;
632 -> 633 ;
634 [label="insulin <= 2.0\nentropy = 0.764\nsamples = 9\nvalue = [7, 2]"] ;
632 -> 634 ;
635 [label="age_50 <= 0.5\nentropy = 0.544\nsamples = 8\nvalue = [7, 1]"] ;
634 -> 635 ;
636 [label="entropy = 0.0\nsamples = 6\nvalue = [6, 0]"] ;
635 -> 636 ;
637 [label="glimepiride <= 0.5\nentropy = 1.0\nsamples = 2\nvalue = [1, 1]"] ;
635 -> 637 ;
638 [label="entropy = 0.0\nsamples = 1\nvalue = [1, 0]"] ;
637 -> 638 ;
639 [label="entropy = 0.0\nsamples = 1\nvalue = [0, 1]"] ;
637 -> 639 ;
640 [label="entropy = 0.0\nsamples = 1\nvalue = [0, 1]"] ;
634 -> 640 ;
641 [label="entropy = 0.0\nsamples = 8\nvalue = [8, 0]"] ;
631 -> 641 ;
642 [label="entropy = 0.0\nsamples = 12\nvalue = [12, 0]"] ;
618 -> 642 ;
643 [label="time_in_hospital <= 3.5\nentropy = 1.0\nsamples = 4\nvalue = [2, 2]"] ;
617 -> 643 ;
644 [label="entropy = 0.0\nsamples = 2\nvalue = [2, 0]"] ;
643 -> 644 ;
645 [label="entropy = 0.0\nsamples = 2\nvalue = [0, 2]"] ;
643 -> 645 ;
646 [label="entropy = 0.0\nsamples = 2\nvalue = [0, 2]"] ;
612 -> 646 ;
647 [label="entropy = 0.0\nsamples = 9\nvalue = [9, 0]"] ;
611 -> 647 ;
648 [label="num_lab_procedures <= 58.5\nentropy = 0.969\nsamples = 73\nvalue = [44, 29]"] ;
610 -> 648 ;
649 [label="num_lab_procedures <= 49.5\nentropy = 0.876\nsamples = 44\nvalue = [31, 13]"] ;
648 -> 649 ;
650 [label="time_in_hospital <= 2.5\nentropy = 0.978\nsamples = 29\nvalue = [17, 12]"] ;
649 -> 650 ;
651 [label="entropy = 0.0\nsamples = 4\nvalue = [4, 0]"] ;
650 -> 651 ;
652 [label="num_medications <= 17.5\nentropy = 0.999\nsamples = 25\nvalue = [13, 12]"] ;
650 -> 652 ;
653 [label="diabetesMed <= 0.5\nentropy = 0.976\nsamples = 22\nvalue = [13, 9]"] ;
652 -> 653 ;
654 [label="entropy = 0.0\nsamples = 3\nvalue = [0, 3]"] ;
653 -> 654 ;
655 [label="num_medications <= 11.5\nentropy = 0.9\nsamples = 19\nvalue = [13, 6]"] ;
653 -> 655 ;
656 [label="entropy = 0.0\nsamples = 4\nvalue = [4, 0]"] ;
655 -> 656 ;
657 [label="diag_2 <= 9.0\nentropy = 0.971\nsamples = 15\nvalue = [9, 6]"] ;
655 -> 657 ;
658 [label="glyburide <= 0.5\nentropy = 0.996\nsamples = 13\nvalue = [7, 6]"] ;
657 -> 658 ;
659 [label="num_lab_procedures <= 32.5\nentropy = 0.946\nsamples = 11\nvalue = [7, 4]"] ;
658 -> 659 ;
660 [label="entropy = 0.0\nsamples = 1\nvalue = [0, 1]"] ;
659 -> 660 ;
661 [label="number_diagnoses <= 5.5\nentropy = 0.881\nsamples = 10\nvalue = [7, 3]"] ;
659 -> 661 ;
662 [label="entropy = 0.0\nsamples = 4\nvalue = [4, 0]"] ;
661 -> 662 ;
663 [label="age_40 <= 0.5\nentropy = 1.0\nsamples = 6\nvalue = [3, 3]"] ;
661 -> 663 ;
664 [label="num_lab_procedures <= 40.0\nentropy = 0.971\nsamples = 5\nvalue = [2, 3]"] ;
663 -> 664 ;
665 [label="num_procedures <= 2.0\nentropy = 0.918\nsamples = 3\nvalue = [2, 1]"] ;
664 -> 665 ;
666 [label="entropy = 0.0\nsamples = 2\nvalue = [2, 0]"] ;
665 -> 666 ;
667 [label="entropy = 0.0\nsamples = 1\nvalue = [0, 1]"] ;
665 -> 667 ;
668 [label="entropy = 0.0\nsamples = 2\nvalue = [0, 2]"] ;
664 -> 668 ;
669 [label="entropy = 0.0\nsamples = 1\nvalue = [1, 0]"] ;
663 -> 669 ;
670 [label="entropy = 0.0\nsamples = 2\nvalue = [0, 2]"] ;
658 -> 670 ;
671 [label="entropy = 0.0\nsamples = 2\nvalue = [2, 0]"] ;
657 -> 671 ;
672 [label="entropy = 0.0\nsamples = 3\nvalue = [0, 3]"] ;
652 -> 672 ;
673 [label="time_in_hospital <= 2.0\nentropy = 0.353\nsamples = 15\nvalue = [14, 1]"] ;
649 -> 673 ;
674 [label="diabetesMed <= 0.5\nentropy = 1.0\nsamples = 2\nvalue = [1, 1]"] ;
673 -> 674 ;
675 [label="entropy = 0.0\nsamples = 1\nvalue = [0, 1]"] ;
674 -> 675 ;
676 [label="entropy = 0.0\nsamples = 1\nvalue = [1, 0]"] ;
674 -> 676 ;
677 [label="entropy = 0.0\nsamples = 13\nvalue = [13, 0]"] ;
673 -> 677 ;
678 [label="num_medications <= 10.5\nentropy = 0.992\nsamples = 29\nvalue = [13, 16]"] ;
648 -> 678 ;
679 [label="entropy = 0.0\nsamples = 4\nvalue = [0, 4]"] ;
678 -> 679 ;
680 [label="rosiglitazone <= 0.5\nentropy = 0.999\nsamples = 25\nvalue = [13, 12]"] ;
678 -> 680 ;
681 [label="num_lab_procedures <= 68.5\nentropy = 0.959\nsamples = 21\nvalue = [13, 8]"] ;
680 -> 681 ;
682 [label="num_lab_procedures <= 59.5\nentropy = 0.997\nsamples = 15\nvalue = [7, 8]"] ;
681 -> 682 ;
683 [label="entropy = 0.0\nsamples = 3\nvalue = [0, 3]"] ;
682 -> 683 ;
684 [label="num_procedures <= 2.5\nentropy = 0.98\nsamples = 12\nvalue = [7, 5]"] ;
682 -> 684 ;
685 [label="gender <= 0.5\nentropy = 0.881\nsamples = 10\nvalue = [7, 3]"] ;
684 -> 685 ;
686 [label="entropy = 0.0\nsamples = 6\nvalue = [6, 0]"] ;
685 -> 686 ;
687 [label="glimepiride <= 0.5\nentropy = 0.811\nsamples = 4\nvalue = [1, 3]"] ;
685 -> 687 ;
688 [label="entropy = 0.0\nsamples = 3\nvalue = [0, 3]"] ;
687 -> 688 ;
689 [label="entropy = 0.0\nsamples = 1\nvalue = [1, 0]"] ;
687 -> 689 ;
690 [label="entropy = 0.0\nsamples = 2\nvalue = [0, 2]"] ;
684 -> 690 ;
691 [label="entropy = 0.0\nsamples = 6\nvalue = [6, 0]"] ;
681 -> 691 ;
692 [label="entropy = 0.0\nsamples = 4\nvalue = [0, 4]"] ;
680 -> 692 ;
693 [label="age_20 <= 0.5\nentropy = 0.983\nsamples = 429\nvalue = [247, 182]"] ;
609 -> 693 ;
694 [label="metformin <= 1.5\nentropy = 0.986\nsamples = 423\nvalue = [241, 182]"] ;
693 -> 694 ;
695 [label="num_procedures <= 2.5\nentropy = 0.988\nsamples = 418\nvalue = [236, 182]"] ;
694 -> 695 ;
696 [label="num_medications <= 12.5\nentropy = 0.996\nsamples = 336\nvalue = [180, 156]"] ;
695 -> 696 ;
697 [label="age_70 <= 0.5\nentropy = 0.978\nsamples = 235\nvalue = [138, 97]"] ;
696 -> 697 ;
698 [label="num_lab_procedures <= 72.5\nentropy = 0.946\nsamples = 184\nvalue = [117, 67]"] ;
697 -> 698 ;
699 [label="num_lab_procedures <= 67.0\nentropy = 0.937\nsamples = 181\nvalue = [117, 64]"] ;
698 -> 699 ;
700 [label="age_30 <= 0.5\nentropy = 0.946\nsamples = 176\nvalue = [112, 64]"] ;
699 -> 700 ;
701 [label="num_lab_procedures <= 11.5\nentropy = 0.922\nsamples = 160\nvalue = [106, 54]"] ;
700 -> 701 ;
702 [label="age_50 <= 0.5\nentropy = 0.722\nsamples = 5\nvalue = [1, 4]"] ;
701 -> 702 ;
703 [label="entropy = 0.0\nsamples = 4\nvalue = [0, 4]"] ;
702 -> 703 ;
704 [label="entropy = 0.0\nsamples = 1\nvalue = [1, 0]"] ;
702 -> 704 ;
705 [label="num_lab_procedures <= 17.5\nentropy = 0.907\nsamples = 155\nvalue = [105, 50]"] ;
701 -> 705 ;
706 [label="entropy = 0.0\nsamples = 5\nvalue = [5, 0]"] ;
705 -> 706 ;
707 [label="glyburide <= 0.5\nentropy = 0.918\nsamples = 150\nvalue = [100, 50]"] ;
705 -> 707 ;
708 [label="diag_2 <= 9.0\nentropy = 0.947\nsamples = 126\nvalue = [80, 46]"] ;
707 -> 708 ;
709 [label="medical_specialty <= 10.5\nentropy = 0.938\nsamples = 124\nvalue = [80, 44]"] ;
708 -> 709 ;
710 [label="medical_specialty <= 7.0\nentropy = 0.965\nsamples = 105\nvalue = [64, 41]"] ;
709 -> 710 ;
711 [label="num_lab_procedures <= 58.5\nentropy = 0.944\nsamples = 94\nvalue = [60, 34]"] ;
710 -> 711 ;
712 [label="num_lab_procedures <= 56.5\nentropy = 0.969\nsamples = 78\nvalue = [47, 31]"] ;
711 -> 712 ;
713 [label="diag_2 <= 0.5\nentropy = 0.94\nsamples = 70\nvalue = [45, 25]"] ;
712 -> 713 ;
714 [label="entropy = 0.0\nsamples = 2\nvalue = [0, 2]"] ;
713 -> 714 ;
715 [label="number_diagnoses <= 4.5\nentropy = 0.923\nsamples = 68\nvalue = [45, 23]"] ;
713 -> 715 ;
716 [label="age_60 <= 0.5\nentropy = 0.992\nsamples = 29\nvalue = [16, 13]"] ;
715 -> 716 ;
717 [label="glipizide <= 0.5\nentropy = 0.881\nsamples = 20\nvalue = [14, 6]"] ;
716 -> 717 ;
718 [label="medical_specialty <= 4.5\nentropy = 0.696\nsamples = 16\nvalue = [13, 3]"] ;
717 -> 718 ;
719 [label="entropy = 0.0\nsamples = 9\nvalue = [9, 0]"] ;
718 -> 719 ;
720 [label="metformin <= 0.5\nentropy = 0.985\nsamples = 7\nvalue = [4, 3]"] ;
718 -> 720 ;
721 [label="age_10 <= 0.5\nentropy = 0.971\nsamples = 5\nvalue = [2, 3]"] ;
720 -> 721 ;
722 [label="entropy = 0.0\nsamples = 2\nvalue = [0, 2]"] ;
721 -> 722 ;
723 [label="number_diagnoses <= 1.5\nentropy = 0.918\nsamples = 3\nvalue = [2, 1]"] ;
721 -> 723 ;
724 [label="entropy = 0.0\nsamples = 1\nvalue = [0, 1]"] ;
723 -> 724 ;
725 [label="entropy = 0.0\nsamples = 2\nvalue = [2, 0]"] ;
723 -> 725 ;
726 [label="entropy = 0.0\nsamples = 2\nvalue = [2, 0]"] ;
720 -> 726 ;
727 [label="num_lab_procedures <= 46.0\nentropy = 0.811\nsamples = 4\nvalue = [1, 3]"] ;
717 -> 727 ;
728 [label="entropy = 0.0\nsamples = 3\nvalue = [0, 3]"] ;
727 -> 728 ;
729 [label="entropy = 0.0\nsamples = 1\nvalue = [1, 0]"] ;
727 -> 729 ;
730 [label="discharge_disposition_id <= 3.0\nentropy = 0.764\nsamples = 9\nvalue = [2, 7]"] ;
716 -> 730 ;
731 [label="entropy = 0.0\nsamples = 6\nvalue = [0, 6]"] ;
730 -> 731 ;
732 [label="num_lab_procedures <= 46.0\nentropy = 0.918\nsamples = 3\nvalue = [2, 1]"] ;
730 -> 732 ;
733 [label="entropy = 0.0\nsamples = 2\nvalue = [2, 0]"] ;
732 -> 733 ;
734 [label="entropy = 0.0\nsamples = 1\nvalue = [0, 1]"] ;
732 -> 734 ;
735 [label="race <= 2.0\nentropy = 0.821\nsamples = 39\nvalue = [29, 10]"] ;
715 -> 735 ;
736 [label="pioglitazone <= 0.5\nentropy = 0.753\nsamples = 37\nvalue = [29, 8]"] ;
735 -> 736 ;
737 [label="metformin <= 0.5\nentropy = 0.711\nsamples = 36\nvalue = [29, 7]"] ;
736 -> 737 ;
738 [label="rosiglitazone <= 0.5\nentropy = 0.826\nsamples = 27\nvalue = [20, 7]"] ;
737 -> 738 ;
739 [label="change <= 0.5\nentropy = 0.779\nsamples = 26\nvalue = [20, 6]"] ;
738 -> 739 ;
740 [label="insulin <= 0.5\nentropy = 0.863\nsamples = 21\nvalue = [15, 6]"] ;
739 -> 740 ;
741 [label="num_medications <= 8.5\nentropy = 0.696\nsamples = 16\nvalue = [13, 3]"] ;
740 -> 741 ;
742 [label="entropy = 0.0\nsamples = 9\nvalue = [9, 0]"] ;
741 -> 742 ;
743 [label="num_lab_procedures <= 44.5\nentropy = 0.985\nsamples = 7\nvalue = [4, 3]"] ;
741 -> 743 ;
744 [label="entropy = 0.0\nsamples = 2\nvalue = [0, 2]"] ;
743 -> 744 ;
745 [label="age_40 <= 0.5\nentropy = 0.722\nsamples = 5\nvalue = [4, 1]"] ;
743 -> 745 ;
746 [label="entropy = 0.0\nsamples = 4\nvalue = [4, 0]"] ;
745 -> 746 ;
747 [label="entropy = 0.0\nsamples = 1\nvalue = [0, 1]"] ;
745 -> 747 ;
748 [label="num_lab_procedures <= 41.0\nentropy = 0.971\nsamples = 5\nvalue = [2, 3]"] ;
740 -> 748 ;
749 [label="age_40 <= 0.5\nentropy = 0.918\nsamples = 3\nvalue = [2, 1]"] ;
748 -> 749 ;
750 [label="entropy = 0.0\nsamples = 2\nvalue = [2, 0]"] ;
749 -> 750 ;
751 [label="entropy = 0.0\nsamples = 1\nvalue = [0, 1]"] ;
749 -> 751 ;
752 [label="entropy = 0.0\nsamples = 2\nvalue = [0, 2]"] ;
748 -> 752 ;
753 [label="entropy = 0.0\nsamples = 5\nvalue = [5, 0]"] ;
739 -> 753 ;
754 [label="entropy = 0.0\nsamples = 1\nvalue = [0, 1]"] ;
738 -> 754 ;
755 [label="entropy = 0.0\nsamples = 9\nvalue = [9, 0]"] ;
737 -> 755 ;
756 [label="entropy = 0.0\nsamples = 1\nvalue = [0, 1]"] ;
736 -> 756 ;
757 [label="entropy = 0.0\nsamples = 2\nvalue = [0, 2]"] ;
735 -> 757 ;
758 [label="num_medications <= 8.5\nentropy = 0.811\nsamples = 8\nvalue = [2, 6]"] ;
712 -> 758 ;
759 [label="entropy = 0.0\nsamples = 5\nvalue = [0, 5]"] ;
758 -> 759 ;
760 [label="num_procedures <= 1.0\nentropy = 0.918\nsamples = 3\nvalue = [2, 1]"] ;
758 -> 760 ;
761 [label="entropy = 0.0\nsamples = 2\nvalue = [2, 0]"] ;
760 -> 761 ;
762 [label="entropy = 0.0\nsamples = 1\nvalue = [0, 1]"] ;
760 -> 762 ;
763 [label="time_in_hospital <= 3.5\nentropy = 0.696\nsamples = 16\nvalue = [13, 3]"] ;
711 -> 763 ;
764 [label="entropy = 0.0\nsamples = 10\nvalue = [10, 0]"] ;
763 -> 764 ;
765 [label="num_lab_procedures <= 61.0\nentropy = 1.0\nsamples = 6\nvalue = [3, 3]"] ;
763 -> 765 ;
766 [label="entropy = 0.0\nsamples = 2\nvalue = [2, 0]"] ;
765 -> 766 ;
767 [label="number_diagnoses <= 5.5\nentropy = 0.811\nsamples = 4\nvalue = [1, 3]"] ;
765 -> 767 ;
768 [label="entropy = 0.0\nsamples = 1\nvalue = [1, 0]"] ;
767 -> 768 ;
769 [label="entropy = 0.0\nsamples = 3\nvalue = [0, 3]"] ;
767 -> 769 ;
770 [label="num_lab_procedures <= 40.5\nentropy = 0.946\nsamples = 11\nvalue = [4, 7]"] ;
710 -> 770 ;
771 [label="entropy = 0.0\nsamples = 2\nvalue = [2, 0]"] ;
770 -> 771 ;
772 [label="num_lab_procedures <= 55.5\nentropy = 0.764\nsamples = 9\nvalue = [2, 7]"] ;
770 -> 772 ;
773 [label="entropy = 0.0\nsamples = 5\nvalue = [0, 5]"] ;
772 -> 773 ;
774 [label="change <= 0.5\nentropy = 1.0\nsamples = 4\nvalue = [2, 2]"] ;
772 -> 774 ;
775 [label="time_in_hospital <= 3.5\nentropy = 0.918\nsamples = 3\nvalue = [1, 2]"] ;
774 -> 775 ;
776 [label="entropy = 0.0\nsamples = 1\nvalue = [1, 0]"] ;
775 -> 776 ;
777 [label="entropy = 0.0\nsamples = 2\nvalue = [0, 2]"] ;
775 -> 777 ;
778 [label="entropy = 0.0\nsamples = 1\nvalue = [1, 0]"] ;
774 -> 778 ;
779 [label="insulin <= 2.0\nentropy = 0.629\nsamples = 19\nvalue = [16, 3]"] ;
709 -> 779 ;
780 [label="num_lab_procedures <= 38.0\nentropy = 0.503\nsamples = 18\nvalue = [16, 2]"] ;
779 -> 780 ;
781 [label="insulin <= 0.5\nentropy = 0.971\nsamples = 5\nvalue = [3, 2]"] ;
780 -> 781 ;
782 [label="entropy = 0.0\nsamples = 3\nvalue = [3, 0]"] ;
781 -> 782 ;
783 [label="entropy = 0.0\nsamples = 2\nvalue = [0, 2]"] ;
781 -> 783 ;
784 [label="entropy = 0.0\nsamples = 13\nvalue = [13, 0]"] ;
780 -> 784 ;
785 [label="entropy = 0.0\nsamples = 1\nvalue = [0, 1]"] ;
779 -> 785 ;
786 [label="entropy = 0.0\nsamples = 2\nvalue = [0, 2]"] ;
708 -> 786 ;
787 [label="num_medications <= 9.5\nentropy = 0.65\nsamples = 24\nvalue = [20, 4]"] ;
707 -> 787 ;
788 [label="glyburide <= 2.0\nentropy = 0.89\nsamples = 13\nvalue = [9, 4]"] ;
787 -> 788 ;
789 [label="number_diagnoses <= 4.5\nentropy = 0.684\nsamples = 11\nvalue = [9, 2]"] ;
788 -> 789 ;
790 [label="num_medications <= 5.5\nentropy = 0.918\nsamples = 3\nvalue = [1, 2]"] ;
789 -> 790 ;
791 [label="entropy = 0.0\nsamples = 1\nvalue = [1, 0]"] ;
790 -> 791 ;
792 [label="entropy = 0.0\nsamples = 2\nvalue = [0, 2]"] ;
790 -> 792 ;
793 [label="entropy = 0.0\nsamples = 8\nvalue = [8, 0]"] ;
789 -> 793 ;
794 [label="entropy = 0.0\nsamples = 2\nvalue = [0, 2]"] ;
788 -> 794 ;
795 [label="entropy = 0.0\nsamples = 11\nvalue = [11, 0]"] ;
787 -> 795 ;
796 [label="glipizide <= 0.5\nentropy = 0.954\nsamples = 16\nvalue = [6, 10]"] ;
700 -> 796 ;
797 [label="insulin <= 0.5\nentropy = 0.918\nsamples = 15\nvalue = [5, 10]"] ;
796 -> 797 ;
798 [label="time_in_hospital <= 3.5\nentropy = 0.971\nsamples = 5\nvalue = [3, 2]"] ;
797 -> 798 ;
799 [label="entropy = 0.0\nsamples = 2\nvalue = [0, 2]"] ;
798 -> 799 ;
800 [label="entropy = 0.0\nsamples = 3\nvalue = [3, 0]"] ;
798 -> 800 ;
801 [label="gender <= 0.5\nentropy = 0.722\nsamples = 10\nvalue = [2, 8]"] ;
797 -> 801 ;
802 [label="entropy = 0.0\nsamples = 4\nvalue = [0, 4]"] ;
801 -> 802 ;
803 [label="medical_specialty <= 3.0\nentropy = 0.918\nsamples = 6\nvalue = [2, 4]"] ;
801 -> 803 ;
804 [label="entropy = 0.0\nsamples = 1\nvalue = [1, 0]"] ;
803 -> 804 ;
805 [label="medical_specialty <= 5.5\nentropy = 0.722\nsamples = 5\nvalue = [1, 4]"] ;
803 -> 805 ;
806 [label="entropy = 0.0\nsamples = 4\nvalue = [0, 4]"] ;
805 -> 806 ;
807 [label="entropy = 0.0\nsamples = 1\nvalue = [1, 0]"] ;
805 -> 807 ;
808 [label="entropy = 0.0\nsamples = 1\nvalue = [1, 0]"] ;
796 -> 808 ;
809 [label="entropy = 0.0\nsamples = 5\nvalue = [5, 0]"] ;
699 -> 809 ;
810 [label="entropy = 0.0\nsamples = 3\nvalue = [0, 3]"] ;
698 -> 810 ;
811 [label="num_medications <= 5.5\nentropy = 0.977\nsamples = 51\nvalue = [21, 30]"] ;
697 -> 811 ;
812 [label="entropy = 0.0\nsamples = 5\nvalue = [0, 5]"] ;
811 -> 812 ;
813 [label="discharge_disposition_id <= 5.5\nentropy = 0.995\nsamples = 46\nvalue = [21, 25]"] ;
811 -> 813 ;
814 [label="medical_specialty <= 4.0\nentropy = 1.0\nsamples = 41\nvalue = [21, 20]"] ;
813 -> 814 ;
815 [label="time_in_hospital <= 2.5\nentropy = 0.779\nsamples = 13\nvalue = [3, 10]"] ;
814 -> 815 ;
816 [label="num_medications <= 9.5\nentropy = 0.918\nsamples = 3\nvalue = [2, 1]"] ;
815 -> 816 ;
817 [label="entropy = 0.0\nsamples = 1\nvalue = [0, 1]"] ;
816 -> 817 ;
818 [label="entropy = 0.0\nsamples = 2\nvalue = [2, 0]"] ;
816 -> 818 ;
819 [label="race <= 2.5\nentropy = 0.469\nsamples = 10\nvalue = [1, 9]"] ;
815 -> 819 ;
820 [label="entropy = 0.0\nsamples = 9\nvalue = [0, 9]"] ;
819 -> 820 ;
821 [label="entropy = 0.0\nsamples = 1\nvalue = [1, 0]"] ;
819 -> 821 ;
822 [label="change <= 0.5\nentropy = 0.94\nsamples = 28\nvalue = [18, 10]"] ;
814 -> 822 ;
823 [label="num_medications <= 9.5\nentropy = 0.702\nsamples = 21\nvalue = [17, 4]"] ;
822 -> 823 ;
824 [label="entropy = 0.0\nsamples = 11\nvalue = [11, 0]"] ;
823 -> 824 ;
825 [label="insulin <= 0.5\nentropy = 0.971\nsamples = 10\nvalue = [6, 4]"] ;
823 -> 825 ;
826 [label="num_procedures <= 1.5\nentropy = 0.592\nsamples = 7\nvalue = [6, 1]"] ;
825 -> 826 ;
827 [label="entropy = 0.0\nsamples = 6\nvalue = [6, 0]"] ;
826 -> 827 ;
828 [label="entropy = 0.0\nsamples = 1\nvalue = [0, 1]"] ;
826 -> 828 ;
829 [label="entropy = 0.0\nsamples = 3\nvalue = [0, 3]"] ;
825 -> 829 ;
830 [label="glyburide <= 1.5\nentropy = 0.592\nsamples = 7\nvalue = [1, 6]"] ;
822 -> 830 ;
831 [label="entropy = 0.0\nsamples = 6\nvalue = [0, 6]"] ;
830 -> 831 ;
832 [label="entropy = 0.0\nsamples = 1\nvalue = [1, 0]"] ;
830 -> 832 ;
833 [label="entropy = 0.0\nsamples = 5\nvalue = [0, 5]"] ;
813 -> 833 ;
834 [label="age_10 <= 0.5\nentropy = 0.979\nsamples = 101\nvalue = [42, 59]"] ;
696 -> 834 ;
835 [label="num_medications <= 26.5\nentropy = 0.97\nsamples = 98\nvalue = [39, 59]"] ;
834 -> 835 ;
836 [label="num_lab_procedures <= 17.5\nentropy = 0.957\nsamples = 95\nvalue = [36, 59]"] ;
835 -> 836 ;
837 [label="entropy = 0.0\nsamples = 2\nvalue = [2, 0]"] ;
836 -> 837 ;
838 [label="num_lab_procedures <= 43.5\nentropy = 0.947\nsamples = 93\nvalue = [34, 59]"] ;
836 -> 838 ;
839 [label="number_diagnoses <= 5.5\nentropy = 0.736\nsamples = 29\nvalue = [6, 23]"] ;
838 -> 839 ;
840 [label="entropy = 0.0\nsamples = 11\nvalue = [0, 11]"] ;
839 -> 840 ;
841 [label="num_lab_procedures <= 27.5\nentropy = 0.918\nsamples = 18\nvalue = [6, 12]"] ;
839 -> 841 ;
842 [label="discharge_disposition_id <= 3.5\nentropy = 0.918\nsamples = 6\nvalue = [4, 2]"] ;
841 -> 842 ;
843 [label="entropy = 0.0\nsamples = 4\nvalue = [4, 0]"] ;
842 -> 843 ;
844 [label="entropy = 0.0\nsamples = 2\nvalue = [0, 2]"] ;
842 -> 844 ;
845 [label="age_70 <= 0.5\nentropy = 0.65\nsamples = 12\nvalue = [2, 10]"] ;
841 -> 845 ;
846 [label="insulin <= 2.0\nentropy = 0.439\nsamples = 11\nvalue = [1, 10]"] ;
845 -> 846 ;
847 [label="entropy = 0.0\nsamples = 10\nvalue = [0, 10]"] ;
846 -> 847 ;
848 [label="entropy = 0.0\nsamples = 1\nvalue = [1, 0]"] ;
846 -> 848 ;
849 [label="entropy = 0.0\nsamples = 1\nvalue = [1, 0]"] ;
845 -> 849 ;
850 [label="num_lab_procedures <= 70.5\nentropy = 0.989\nsamples = 64\nvalue = [28, 36]"] ;
838 -> 850 ;
851 [label="pioglitazone <= 0.5\nentropy = 1.0\nsamples = 55\nvalue = [27, 28]"] ;
850 -> 851 ;
852 [label="glipizide <= 0.5\nentropy = 0.996\nsamples = 52\nvalue = [24, 28]"] ;
851 -> 852 ;
853 [label="num_lab_procedures <= 67.0\nentropy = 1.0\nsamples = 47\nvalue = [24, 23]"] ;
852 -> 853 ;
854 [label="num_lab_procedures <= 44.5\nentropy = 0.999\nsamples = 44\nvalue = [21, 23]"] ;
853 -> 854 ;
855 [label="entropy = 0.0\nsamples = 2\nvalue = [2, 0]"] ;
854 -> 855 ;
856 [label="time_in_hospital <= 6.5\nentropy = 0.993\nsamples = 42\nvalue = [19, 23]"] ;
854 -> 856 ;
857 [label="metformin <= 0.5\nentropy = 0.948\nsamples = 30\nvalue = [11, 19]"] ;
856 -> 857 ;
858 [label="num_lab_procedures <= 57.5\nentropy = 0.855\nsamples = 25\nvalue = [7, 18]"] ;
857 -> 858 ;
859 [label="number_diagnoses <= 5.5\nentropy = 0.971\nsamples = 15\nvalue = [6, 9]"] ;
858 -> 859 ;
860 [label="age_50 <= 0.5\nentropy = 0.722\nsamples = 5\nvalue = [4, 1]"] ;
859 -> 860 ;
861 [label="entropy = 0.0\nsamples = 4\nvalue = [4, 0]"] ;
860 -> 861 ;
862 [label="entropy = 0.0\nsamples = 1\nvalue = [0, 1]"] ;
860 -> 862 ;
863 [label="discharge_disposition_id <= 3.0\nentropy = 0.722\nsamples = 10\nvalue = [2, 8]"] ;
859 -> 863 ;
864 [label="entropy = 0.0\nsamples = 7\nvalue = [0, 7]"] ;
863 -> 864 ;
865 [label="gender <= 0.5\nentropy = 0.918\nsamples = 3\nvalue = [2, 1]"] ;
863 -> 865 ;
866 [label="entropy = 0.0\nsamples = 2\nvalue = [2, 0]"] ;
865 -> 866 ;
867 [label="entropy = 0.0\nsamples = 1\nvalue = [0, 1]"] ;
865 -> 867 ;
868 [label="glyburide <= 1.0\nentropy = 0.469\nsamples = 10\nvalue = [1, 9]"] ;
858 -> 868 ;
869 [label="entropy = 0.0\nsamples = 8\nvalue = [0, 8]"] ;
868 -> 869 ;
870 [label="number_diagnoses <= 5.5\nentropy = 1.0\nsamples = 2\nvalue = [1, 1]"] ;
868 -> 870 ;
871 [label="entropy = 0.0\nsamples = 1\nvalue = [0, 1]"] ;
870 -> 871 ;
872 [label="entropy = 0.0\nsamples = 1\nvalue = [1, 0]"] ;
870 -> 872 ;
873 [label="num_lab_procedures <= 46.0\nentropy = 0.722\nsamples = 5\nvalue = [4, 1]"] ;
857 -> 873 ;
874 [label="entropy = 0.0\nsamples = 1\nvalue = [0, 1]"] ;
873 -> 874 ;
875 [label="entropy = 0.0\nsamples = 4\nvalue = [4, 0]"] ;
873 -> 875 ;
876 [label="gender <= 0.5\nentropy = 0.918\nsamples = 12\nvalue = [8, 4]"] ;
856 -> 876 ;
877 [label="medical_specialty <= 3.5\nentropy = 0.918\nsamples = 6\nvalue = [2, 4]"] ;
876 -> 877 ;
878 [label="entropy = 0.0\nsamples = 3\nvalue = [0, 3]"] ;
877 -> 878 ;
879 [label="age_40 <= 0.5\nentropy = 0.918\nsamples = 3\nvalue = [2, 1]"] ;
877 -> 879 ;
880 [label="entropy = 0.0\nsamples = 2\nvalue = [2, 0]"] ;
879 -> 880 ;
881 [label="entropy = 0.0\nsamples = 1\nvalue = [0, 1]"] ;
879 -> 881 ;
882 [label="entropy = 0.0\nsamples = 6\nvalue = [6, 0]"] ;
876 -> 882 ;
883 [label="entropy = 0.0\nsamples = 3\nvalue = [3, 0]"] ;
853 -> 883 ;
884 [label="entropy = 0.0\nsamples = 5\nvalue = [0, 5]"] ;
852 -> 884 ;
885 [label="entropy = 0.0\nsamples = 3\nvalue = [3, 0]"] ;
851 -> 885 ;
886 [label="age_70 <= 0.5\nentropy = 0.503\nsamples = 9\nvalue = [1, 8]"] ;
850 -> 886 ;
887 [label="entropy = 0.0\nsamples = 6\nvalue = [0, 6]"] ;
886 -> 887 ;
888 [label="num_medications <= 14.5\nentropy = 0.918\nsamples = 3\nvalue = [1, 2]"] ;
886 -> 888 ;
889 [label="entropy = 0.0\nsamples = 1\nvalue = [1, 0]"] ;
888 -> 889 ;
890 [label="entropy = 0.0\nsamples = 2\nvalue = [0, 2]"] ;
888 -> 890 ;
891 [label="entropy = 0.0\nsamples = 3\nvalue = [3, 0]"] ;
835 -> 891 ;
892 [label="entropy = 0.0\nsamples = 3\nvalue = [3, 0]"] ;
834 -> 892 ;
893 [label="race <= 0.5\nentropy = 0.901\nsamples = 82\nvalue = [56, 26]"] ;
695 -> 893 ;
894 [label="time_in_hospital <= 4.5\nentropy = 0.792\nsamples = 63\nvalue = [48, 15]"] ;
893 -> 894 ;
895 [label="number_outpatient <= 2.5\nentropy = 0.513\nsamples = 35\nvalue = [31, 4]"] ;
894 -> 895 ;
896 [label="num_lab_procedures <= 39.5\nentropy = 0.431\nsamples = 34\nvalue = [31, 3]"] ;
895 -> 896 ;
897 [label="age_60 <= 0.5\nentropy = 0.779\nsamples = 13\nvalue = [10, 3]"] ;
896 -> 897 ;
898 [label="number_diagnoses <= 6.5\nentropy = 0.985\nsamples = 7\nvalue = [4, 3]"] ;
897 -> 898 ;
899 [label="medical_specialty <= 6.5\nentropy = 0.722\nsamples = 5\nvalue = [4, 1]"] ;
898 -> 899 ;
900 [label="entropy = 0.0\nsamples = 4\nvalue = [4, 0]"] ;
899 -> 900 ;
901 [label="entropy = 0.0\nsamples = 1\nvalue = [0, 1]"] ;
899 -> 901 ;
902 [label="entropy = 0.0\nsamples = 2\nvalue = [0, 2]"] ;
898 -> 902 ;
903 [label="entropy = 0.0\nsamples = 6\nvalue = [6, 0]"] ;
897 -> 903 ;
904 [label="entropy = 0.0\nsamples = 21\nvalue = [21, 0]"] ;
896 -> 904 ;
905 [label="entropy = 0.0\nsamples = 1\nvalue = [0, 1]"] ;
895 -> 905 ;
906 [label="glipizide <= 0.5\nentropy = 0.967\nsamples = 28\nvalue = [17, 11]"] ;
894 -> 906 ;
907 [label="age_60 <= 0.5\nentropy = 0.904\nsamples = 25\nvalue = [17, 8]"] ;
906 -> 907 ;
908 [label="insulin <= 2.0\nentropy = 0.672\nsamples = 17\nvalue = [14, 3]"] ;
907 -> 908 ;
909 [label="age_50 <= 0.5\nentropy = 0.544\nsamples = 16\nvalue = [14, 2]"] ;
908 -> 909 ;
910 [label="entropy = 0.0\nsamples = 12\nvalue = [12, 0]"] ;
909 -> 910 ;
911 [label="rosiglitazone <= 0.5\nentropy = 1.0\nsamples = 4\nvalue = [2, 2]"] ;
909 -> 911 ;
912 [label="number_diagnoses <= 6.5\nentropy = 0.918\nsamples = 3\nvalue = [1, 2]"] ;
911 -> 912 ;
913 [label="entropy = 0.0\nsamples = 2\nvalue = [0, 2]"] ;
912 -> 913 ;
914 [label="entropy = 0.0\nsamples = 1\nvalue = [1, 0]"] ;
912 -> 914 ;
915 [label="entropy = 0.0\nsamples = 1\nvalue = [1, 0]"] ;
911 -> 915 ;
916 [label="entropy = 0.0\nsamples = 1\nvalue = [0, 1]"] ;
908 -> 916 ;
917 [label="num_lab_procedures <= 46.5\nentropy = 0.954\nsamples = 8\nvalue = [3, 5]"] ;
907 -> 917 ;
918 [label="entropy = 0.0\nsamples = 2\nvalue = [2, 0]"] ;
917 -> 918 ;
919 [label="diag_1 <= 0.5\nentropy = 0.65\nsamples = 6\nvalue = [1, 5]"] ;
917 -> 919 ;
920 [label="entropy = 0.0\nsamples = 1\nvalue = [1, 0]"] ;
919 -> 920 ;
921 [label="entropy = 0.0\nsamples = 5\nvalue = [0, 5]"] ;
919 -> 921 ;
922 [label="entropy = 0.0\nsamples = 3\nvalue = [0, 3]"] ;
906 -> 922 ;
923 [label="medical_specialty <= 2.5\nentropy = 0.982\nsamples = 19\nvalue = [8, 11]"] ;
893 -> 923 ;
924 [label="entropy = 0.0\nsamples = 4\nvalue = [0, 4]"] ;
923 -> 924 ;
925 [label="glyburide <= 0.5\nentropy = 0.997\nsamples = 15\nvalue = [8, 7]"] ;
923 -> 925 ;
926 [label="glipizide <= 0.5\nentropy = 0.918\nsamples = 12\nvalue = [8, 4]"] ;
925 -> 926 ;
927 [label="num_medications <= 10.0\nentropy = 0.722\nsamples = 10\nvalue = [8, 2]"] ;
926 -> 927 ;
928 [label="num_lab_procedures <= 47.5\nentropy = 1.0\nsamples = 4\nvalue = [2, 2]"] ;
927 -> 928 ;
929 [label="entropy = 0.0\nsamples = 2\nvalue = [2, 0]"] ;
928 -> 929 ;
930 [label="entropy = 0.0\nsamples = 2\nvalue = [0, 2]"] ;
928 -> 930 ;
931 [label="entropy = 0.0\nsamples = 6\nvalue = [6, 0]"] ;
927 -> 931 ;
932 [label="entropy = 0.0\nsamples = 2\nvalue = [0, 2]"] ;
926 -> 932 ;
933 [label="entropy = 0.0\nsamples = 3\nvalue = [0, 3]"] ;
925 -> 933 ;
934 [label="entropy = 0.0\nsamples = 5\nvalue = [5, 0]"] ;
694 -> 934 ;
935 [label="entropy = 0.0\nsamples = 6\nvalue = [6, 0]"] ;
693 -> 935 ;
936 [label="entropy = 0.0\nsamples = 6\nvalue = [0, 6]"] ;
574 -> 936 ;
937 [label="num_medications <= 14.5\nentropy = 0.995\nsamples = 530\nvalue = [244, 286]"] ;
573 -> 937 ;
938 [label="num_lab_procedures <= 85.5\nentropy = 0.997\nsamples = 260\nvalue = [138, 122]"] ;
937 -> 938 ;
939 [label="metformin <= 1.5\nentropy = 0.996\nsamples = 257\nvalue = [138, 119]"] ;
938 -> 939 ;
940 [label="time_in_hospital <= 10.5\nentropy = 0.997\nsamples = 254\nvalue = [135, 119]"] ;
939 -> 940 ;
941 [label="rosiglitazone <= 0.5\nentropy = 0.998\nsamples = 251\nvalue = [132, 119]"] ;
940 -> 941 ;
942 [label="medical_specialty <= 6.5\nentropy = 0.995\nsamples = 237\nvalue = [128, 109]"] ;
941 -> 942 ;
943 [label="num_lab_procedures <= 39.5\nentropy = 0.987\nsamples = 205\nvalue = [116, 89]"] ;
942 -> 943 ;
944 [label="num_medications <= 13.5\nentropy = 0.845\nsamples = 33\nvalue = [24, 9]"] ;
943 -> 944 ;
945 [label="time_in_hospital <= 5.5\nentropy = 0.663\nsamples = 29\nvalue = [24, 5]"] ;
944 -> 945 ;
946 [label="pioglitazone <= 0.5\nentropy = 0.503\nsamples = 27\nvalue = [24, 3]"] ;
945 -> 946 ;
947 [label="age_50 <= 0.5\nentropy = 0.391\nsamples = 26\nvalue = [24, 2]"] ;
946 -> 947 ;
948 [label="entropy = 0.0\nsamples = 21\nvalue = [21, 0]"] ;
947 -> 948 ;
949 [label="medical_specialty <= 4.0\nentropy = 0.971\nsamples = 5\nvalue = [3, 2]"] ;
947 -> 949 ;
950 [label="num_procedures <= 3.5\nentropy = 0.918\nsamples = 3\nvalue = [1, 2]"] ;
949 -> 950 ;
951 [label="entropy = 0.0\nsamples = 2\nvalue = [0, 2]"] ;
950 -> 951 ;
952 [label="entropy = 0.0\nsamples = 1\nvalue = [1, 0]"] ;
950 -> 952 ;
953 [label="entropy = 0.0\nsamples = 2\nvalue = [2, 0]"] ;
949 -> 953 ;
954 [label="entropy = 0.0\nsamples = 1\nvalue = [0, 1]"] ;
946 -> 954 ;
955 [label="entropy = 0.0\nsamples = 2\nvalue = [0, 2]"] ;
945 -> 955 ;
956 [label="entropy = 0.0\nsamples = 4\nvalue = [0, 4]"] ;
944 -> 956 ;
957 [label="pioglitazone <= 0.5\nentropy = 0.996\nsamples = 172\nvalue = [92, 80]"] ;
943 -> 957 ;
958 [label="num_lab_procedures <= 43.5\nentropy = 0.998\nsamples = 169\nvalue = [89, 80]"] ;
957 -> 958 ;
959 [label="metformin <= 0.5\nentropy = 0.918\nsamples = 24\nvalue = [8, 16]"] ;
958 -> 959 ;
960 [label="num_procedures <= 0.5\nentropy = 1.0\nsamples = 16\nvalue = [8, 8]"] ;
959 -> 960 ;
961 [label="time_in_hospital <= 6.0\nentropy = 0.764\nsamples = 9\nvalue = [7, 2]"] ;
960 -> 961 ;
962 [label="insulin <= 0.5\nentropy = 0.544\nsamples = 8\nvalue = [7, 1]"] ;
961 -> 962 ;
963 [label="entropy = 0.0\nsamples = 6\nvalue = [6, 0]"] ;
962 -> 963 ;
964 [label="time_in_hospital <= 1.5\nentropy = 1.0\nsamples = 2\nvalue = [1, 1]"] ;
962 -> 964 ;
965 [label="entropy = 0.0\nsamples = 1\nvalue = [1, 0]"] ;
964 -> 965 ;
966 [label="entropy = 0.0\nsamples = 1\nvalue = [0, 1]"] ;
964 -> 966 ;
967 [label="entropy = 0.0\nsamples = 1\nvalue = [0, 1]"] ;
961 -> 967 ;
968 [label="discharge_disposition_id <= 5.5\nentropy = 0.592\nsamples = 7\nvalue = [1, 6]"] ;
960 -> 968 ;
969 [label="entropy = 0.0\nsamples = 6\nvalue = [0, 6]"] ;
968 -> 969 ;
970 [label="entropy = 0.0\nsamples = 1\nvalue = [1, 0]"] ;
968 -> 970 ;
971 [label="entropy = 0.0\nsamples = 8\nvalue = [0, 8]"] ;
959 -> 971 ;
972 [label="num_procedures <= 2.5\nentropy = 0.99\nsamples = 145\nvalue = [81, 64]"] ;
958 -> 972 ;
973 [label="gender <= 0.5\nentropy = 0.999\nsamples = 132\nvalue = [69, 63]"] ;
972 -> 973 ;
974 [label="num_lab_procedures <= 48.5\nentropy = 0.973\nsamples = 67\nvalue = [27, 40]"] ;
973 -> 974 ;
975 [label="diabetesMed <= 0.5\nentropy = 0.619\nsamples = 13\nvalue = [11, 2]"] ;
974 -> 975 ;
976 [label="num_lab_procedures <= 47.5\nentropy = 0.971\nsamples = 5\nvalue = [3, 2]"] ;
975 -> 976 ;
977 [label="num_procedures <= 0.5\nentropy = 0.918\nsamples = 3\nvalue = [1, 2]"] ;
976 -> 977 ;
978 [label="entropy = 0.0\nsamples = 2\nvalue = [0, 2]"] ;
977 -> 978 ;
979 [label="entropy = 0.0\nsamples = 1\nvalue = [1, 0]"] ;
977 -> 979 ;
980 [label="entropy = 0.0\nsamples = 2\nvalue = [2, 0]"] ;
976 -> 980 ;
981 [label="entropy = 0.0\nsamples = 8\nvalue = [8, 0]"] ;
975 -> 981 ;
982 [label="num_lab_procedures <= 58.5\nentropy = 0.877\nsamples = 54\nvalue = [16, 38]"] ;
974 -> 982 ;
983 [label="time_in_hospital <= 2.5\nentropy = 0.516\nsamples = 26\nvalue = [3, 23]"] ;
982 -> 983 ;
984 [label="number_diagnoses <= 8.5\nentropy = 0.918\nsamples = 9\nvalue = [3, 6]"] ;
983 -> 984 ;
985 [label="entropy = 0.0\nsamples = 3\nvalue = [0, 3]"] ;
984 -> 985 ;
986 [label="num_medications <= 7.5\nentropy = 1.0\nsamples = 6\nvalue = [3, 3]"] ;
984 -> 986 ;
987 [label="entropy = 0.0\nsamples = 3\nvalue = [0, 3]"] ;
986 -> 987 ;
988 [label="entropy = 0.0\nsamples = 3\nvalue = [3, 0]"] ;
986 -> 988 ;
989 [label="entropy = 0.0\nsamples = 17\nvalue = [0, 17]"] ;
983 -> 989 ;
990 [label="discharge_disposition_id <= 5.5\nentropy = 0.996\nsamples = 28\nvalue = [13, 15]"] ;
982 -> 990 ;
991 [label="age_40 <= 0.5\nentropy = 0.971\nsamples = 25\nvalue = [10, 15]"] ;
990 -> 991 ;
992 [label="glimepiride <= 0.5\nentropy = 0.994\nsamples = 22\nvalue = [10, 12]"] ;
991 -> 992 ;
993 [label="age_80 <= 0.5\nentropy = 1.0\nsamples = 20\nvalue = [10, 10]"] ;
992 -> 993 ;
994 [label="discharge_disposition_id <= 2.0\nentropy = 0.991\nsamples = 18\nvalue = [8, 10]"] ;
993 -> 994 ;
995 [label="medical_specialty <= 2.5\nentropy = 0.997\nsamples = 15\nvalue = [8, 7]"] ;
994 -> 995 ;
996 [label="num_procedures <= 0.5\nentropy = 0.946\nsamples = 11\nvalue = [7, 4]"] ;
995 -> 996 ;
997 [label="entropy = 0.0\nsamples = 5\nvalue = [5, 0]"] ;
996 -> 997 ;
998 [label="race <= 0.5\nentropy = 0.918\nsamples = 6\nvalue = [2, 4]"] ;
996 -> 998 ;
999 [label="entropy = 0.0\nsamples = 3\nvalue = [0, 3]"] ;
998 -> 999 ;
1000 [label="num_lab_procedures <= 78.0\nentropy = 0.918\nsamples = 3\nvalue = [2, 1]"] ;
998 -> 1000 ;
1001 [label="entropy = 0.0\nsamples = 2\nvalue = [2, 0]"] ;
1000 -> 1001 ;
1002 [label="entropy = 0.0\nsamples = 1\nvalue = [0, 1]"] ;
1000 -> 1002 ;
1003 [label="insulin <= 1.0\nentropy = 0.811\nsamples = 4\nvalue = [1, 3]"] ;
995 -> 1003 ;
1004 [label="num_medications <= 11.0\nentropy = 1.0\nsamples = 2\nvalue = [1, 1]"] ;
1003 -> 1004 ;
1005 [label="entropy = 0.0\nsamples = 1\nvalue = [1, 0]"] ;
1004 -> 1005 ;
1006 [label="entropy = 0.0\nsamples = 1\nvalue = [0, 1]"] ;
1004 -> 1006 ;
1007 [label="entropy = 0.0\nsamples = 2\nvalue = [0, 2]"] ;
1003 -> 1007 ;
1008 [label="entropy = 0.0\nsamples = 3\nvalue = [0, 3]"] ;
994 -> 1008 ;
1009 [label="entropy = 0.0\nsamples = 2\nvalue = [2, 0]"] ;
993 -> 1009 ;
1010 [label="entropy = 0.0\nsamples = 2\nvalue = [0, 2]"] ;
992 -> 1010 ;
1011 [label="entropy = 0.0\nsamples = 3\nvalue = [0, 3]"] ;
991 -> 1011 ;
1012 [label="entropy = 0.0\nsamples = 3\nvalue = [3, 0]"] ;
990 -> 1012 ;
1013 [label="num_medications <= 6.5\nentropy = 0.937\nsamples = 65\nvalue = [42, 23]"] ;
973 -> 1013 ;
1014 [label="entropy = 0.0\nsamples = 5\nvalue = [5, 0]"] ;
1013 -> 1014 ;
1015 [label="num_lab_procedures <= 66.5\nentropy = 0.96\nsamples = 60\nvalue = [37, 23]"] ;
1013 -> 1015 ;
1016 [label="glimepiride <= 0.5\nentropy = 0.983\nsamples = 52\nvalue = [30, 22]"] ;
1015 -> 1016 ;
1017 [label="glipizide <= 0.5\nentropy = 0.99\nsamples = 50\nvalue = [28, 22]"] ;
1016 -> 1017 ;
1018 [label="time_in_hospital <= 6.5\nentropy = 1.0\nsamples = 41\nvalue = [21, 20]"] ;
1017 -> 1018 ;
1019 [label="insulin <= 2.0\nentropy = 0.987\nsamples = 30\nvalue = [13, 17]"] ;
1018 -> 1019 ;
1020 [label="age_70 <= 0.5\nentropy = 0.999\nsamples = 27\nvalue = [13, 14]"] ;
1019 -> 1020 ;
1021 [label="num_medications <= 10.5\nentropy = 0.985\nsamples = 21\nvalue = [12, 9]"] ;
1020 -> 1021 ;
1022 [label="entropy = 0.0\nsamples = 4\nvalue = [4, 0]"] ;
1021 -> 1022 ;
1023 [label="insulin <= 0.5\nentropy = 0.998\nsamples = 17\nvalue = [8, 9]"] ;
1021 -> 1023 ;
1024 [label="num_lab_procedures <= 52.5\nentropy = 0.918\nsamples = 12\nvalue = [4, 8]"] ;
1023 -> 1024 ;
1025 [label="entropy = 0.0\nsamples = 5\nvalue = [0, 5]"] ;
1024 -> 1025 ;
1026 [label="medical_specialty <= 1.5\nentropy = 0.985\nsamples = 7\nvalue = [4, 3]"] ;
1024 -> 1026 ;
1027 [label="time_in_hospital <= 5.5\nentropy = 0.811\nsamples = 4\nvalue = [1, 3]"] ;
1026 -> 1027 ;
1028 [label="entropy = 0.0\nsamples = 3\nvalue = [0, 3]"] ;
1027 -> 1028 ;
1029 [label="entropy = 0.0\nsamples = 1\nvalue = [1, 0]"] ;
1027 -> 1029 ;
1030 [label="entropy = 0.0\nsamples = 3\nvalue = [3, 0]"] ;
1026 -> 1030 ;
1031 [label="num_lab_procedures <= 53.5\nentropy = 0.722\nsamples = 5\nvalue = [4, 1]"] ;
1023 -> 1031 ;
1032 [label="entropy = 0.0\nsamples = 4\nvalue = [4, 0]"] ;
1031 -> 1032 ;
1033 [label="entropy = 0.0\nsamples = 1\nvalue = [0, 1]"] ;
1031 -> 1033 ;
1034 [label="time_in_hospital <= 3.5\nentropy = 0.65\nsamples = 6\nvalue = [1, 5]"] ;
1020 -> 1034 ;
1035 [label="medical_specialty <= 3.0\nentropy = 1.0\nsamples = 2\nvalue = [1, 1]"] ;
1034 -> 1035 ;
1036 [label="entropy = 0.0\nsamples = 1\nvalue = [1, 0]"] ;
1035 -> 1036 ;
1037 [label="entropy = 0.0\nsamples = 1\nvalue = [0, 1]"] ;
1035 -> 1037 ;
1038 [label="entropy = 0.0\nsamples = 4\nvalue = [0, 4]"] ;
1034 -> 1038 ;
1039 [label="entropy = 0.0\nsamples = 3\nvalue = [0, 3]"] ;
1019 -> 1039 ;
1040 [label="number_diagnoses <= 8.5\nentropy = 0.845\nsamples = 11\nvalue = [8, 3]"] ;
1018 -> 1040 ;
1041 [label="medical_specialty <= 3.0\nentropy = 0.918\nsamples = 3\nvalue = [1, 2]"] ;
1040 -> 1041 ;
1042 [label="entropy = 0.0\nsamples = 1\nvalue = [1, 0]"] ;
1041 -> 1042 ;
1043 [label="entropy = 0.0\nsamples = 2\nvalue = [0, 2]"] ;
1041 -> 1043 ;
1044 [label="num_medications <= 10.5\nentropy = 0.544\nsamples = 8\nvalue = [7, 1]"] ;
1040 -> 1044 ;
1045 [label="num_lab_procedures <= 57.5\nentropy = 1.0\nsamples = 2\nvalue = [1, 1]"] ;
1044 -> 1045 ;
1046 [label="entropy = 0.0\nsamples = 1\nvalue = [1, 0]"] ;
1045 -> 1046 ;
1047 [label="entropy = 0.0\nsamples = 1\nvalue = [0, 1]"] ;
1045 -> 1047 ;
1048 [label="entropy = 0.0\nsamples = 6\nvalue = [6, 0]"] ;
1044 -> 1048 ;
1049 [label="age_60 <= 0.5\nentropy = 0.764\nsamples = 9\nvalue = [7, 2]"] ;
1017 -> 1049 ;
1050 [label="entropy = 0.0\nsamples = 6\nvalue = [6, 0]"] ;
1049 -> 1050 ;
1051 [label="medical_specialty <= 4.0\nentropy = 0.918\nsamples = 3\nvalue = [1, 2]"] ;
1049 -> 1051 ;
1052 [label="entropy = 0.0\nsamples = 2\nvalue = [0, 2]"] ;
1051 -> 1052 ;
1053 [label="entropy = 0.0\nsamples = 1\nvalue = [1, 0]"] ;
1051 -> 1053 ;
1054 [label="entropy = 0.0\nsamples = 2\nvalue = [2, 0]"] ;
1016 -> 1054 ;
1055 [label="glimepiride <= 0.5\nentropy = 0.544\nsamples = 8\nvalue = [7, 1]"] ;
1015 -> 1055 ;
1056 [label="entropy = 0.0\nsamples = 7\nvalue = [7, 0]"] ;
1055 -> 1056 ;
1057 [label="entropy = 0.0\nsamples = 1\nvalue = [0, 1]"] ;
1055 -> 1057 ;
1058 [label="num_medications <= 9.5\nentropy = 0.391\nsamples = 13\nvalue = [12, 1]"] ;
972 -> 1058 ;
1059 [label="entropy = 0.0\nsamples = 1\nvalue = [0, 1]"] ;
1058 -> 1059 ;
1060 [label="entropy = 0.0\nsamples = 12\nvalue = [12, 0]"] ;
1058 -> 1060 ;
1061 [label="entropy = 0.0\nsamples = 3\nvalue = [3, 0]"] ;
957 -> 1061 ;
1062 [label="number_diagnoses <= 8.5\nentropy = 0.954\nsamples = 32\nvalue = [12, 20]"] ;
942 -> 1062 ;
1063 [label="num_lab_procedures <= 41.5\nentropy = 0.961\nsamples = 13\nvalue = [8, 5]"] ;
1062 -> 1063 ;
1064 [label="num_medications <= 10.5\nentropy = 0.863\nsamples = 7\nvalue = [2, 5]"] ;
1063 -> 1064 ;
1065 [label="entropy = 0.0\nsamples = 5\nvalue = [0, 5]"] ;
1064 -> 1065 ;
1066 [label="entropy = 0.0\nsamples = 2\nvalue = [2, 0]"] ;
1064 -> 1066 ;
1067 [label="entropy = 0.0\nsamples = 6\nvalue = [6, 0]"] ;
1063 -> 1067 ;
1068 [label="metformin <= 0.5\nentropy = 0.742\nsamples = 19\nvalue = [4, 15]"] ;
1062 -> 1068 ;
1069 [label="num_lab_procedures <= 51.0\nentropy = 0.65\nsamples = 18\nvalue = [3, 15]"] ;
1068 -> 1069 ;
1070 [label="num_lab_procedures <= 47.0\nentropy = 0.918\nsamples = 9\nvalue = [3, 6]"] ;
1069 -> 1070 ;
1071 [label="num_medications <= 11.5\nentropy = 0.592\nsamples = 7\nvalue = [1, 6]"] ;
1070 -> 1071 ;
1072 [label="entropy = 0.0\nsamples = 6\nvalue = [0, 6]"] ;
1071 -> 1072 ;
1073 [label="entropy = 0.0\nsamples = 1\nvalue = [1, 0]"] ;
1071 -> 1073 ;
1074 [label="entropy = 0.0\nsamples = 2\nvalue = [2, 0]"] ;
1070 -> 1074 ;
1075 [label="entropy = 0.0\nsamples = 9\nvalue = [0, 9]"] ;
1069 -> 1075 ;
1076 [label="entropy = 0.0\nsamples = 1\nvalue = [1, 0]"] ;
1068 -> 1076 ;
1077 [label="number_diagnoses <= 8.5\nentropy = 0.863\nsamples = 14\nvalue = [4, 10]"] ;
941 -> 1077 ;
1078 [label="entropy = 0.0\nsamples = 8\nvalue = [0, 8]"] ;
1077 -> 1078 ;
1079 [label="num_medications <= 11.0\nentropy = 0.918\nsamples = 6\nvalue = [4, 2]"] ;
1077 -> 1079 ;
1080 [label="time_in_hospital <= 2.5\nentropy = 0.918\nsamples = 3\nvalue = [1, 2]"] ;
1079 -> 1080 ;
1081 [label="entropy = 0.0\nsamples = 1\nvalue = [1, 0]"] ;
1080 -> 1081 ;
1082 [label="entropy = 0.0\nsamples = 2\nvalue = [0, 2]"] ;
1080 -> 1082 ;
1083 [label="entropy = 0.0\nsamples = 3\nvalue = [3, 0]"] ;
1079 -> 1083 ;
1084 [label="entropy = 0.0\nsamples = 3\nvalue = [3, 0]"] ;
940 -> 1084 ;
1085 [label="entropy = 0.0\nsamples = 3\nvalue = [3, 0]"] ;
939 -> 1085 ;
1086 [label="entropy = 0.0\nsamples = 3\nvalue = [0, 3]"] ;
938 -> 1086 ;
1087 [label="race <= 3.5\nentropy = 0.966\nsamples = 270\nvalue = [106, 164]"] ;
937 -> 1087 ;
1088 [label="insulin <= 2.5\nentropy = 0.96\nsamples = 266\nvalue = [102, 164]"] ;
1087 -> 1088 ;
1089 [label="num_lab_procedures <= 55.5\nentropy = 0.98\nsamples = 226\nvalue = [94, 132]"] ;
1088 -> 1089 ;
1090 [label="time_in_hospital <= 3.5\nentropy = 0.918\nsamples = 105\nvalue = [35, 70]"] ;
1089 -> 1090 ;
1091 [label="num_procedures <= 1.5\nentropy = 0.959\nsamples = 21\nvalue = [13, 8]"] ;
1090 -> 1091 ;
1092 [label="glyburide <= 0.5\nentropy = 0.985\nsamples = 14\nvalue = [6, 8]"] ;
1091 -> 1092 ;
1093 [label="num_medications <= 15.5\nentropy = 0.994\nsamples = 11\nvalue = [6, 5]"] ;
1092 -> 1093 ;
1094 [label="entropy = 0.0\nsamples = 3\nvalue = [0, 3]"] ;
1093 -> 1094 ;
1095 [label="num_lab_procedures <= 45.5\nentropy = 0.811\nsamples = 8\nvalue = [6, 2]"] ;
1093 -> 1095 ;
1096 [label="entropy = 0.0\nsamples = 5\nvalue = [5, 0]"] ;
1095 -> 1096 ;
1097 [label="num_lab_procedures <= 53.5\nentropy = 0.918\nsamples = 3\nvalue = [1, 2]"] ;
1095 -> 1097 ;
1098 [label="entropy = 0.0\nsamples = 2\nvalue = [0, 2]"] ;
1097 -> 1098 ;
1099 [label="entropy = 0.0\nsamples = 1\nvalue = [1, 0]"] ;
1097 -> 1099 ;
1100 [label="entropy = 0.0\nsamples = 3\nvalue = [0, 3]"] ;
1092 -> 1100 ;
1101 [label="entropy = 0.0\nsamples = 7\nvalue = [7, 0]"] ;
1091 -> 1101 ;
1102 [label="gender <= 0.5\nentropy = 0.83\nsamples = 84\nvalue = [22, 62]"] ;
1090 -> 1102 ;
1103 [label="num_medications <= 26.0\nentropy = 0.985\nsamples = 35\nvalue = [15, 20]"] ;
1102 -> 1103 ;
1104 [label="num_lab_procedures <= 26.0\nentropy = 0.938\nsamples = 31\nvalue = [11, 20]"] ;
1103 -> 1104 ;
1105 [label="entropy = 0.0\nsamples = 2\nvalue = [2, 0]"] ;
1104 -> 1105 ;
1106 [label="num_lab_procedures <= 42.0\nentropy = 0.894\nsamples = 29\nvalue = [9, 20]"] ;
1104 -> 1106 ;
1107 [label="entropy = 0.0\nsamples = 8\nvalue = [0, 8]"] ;
1106 -> 1107 ;
1108 [label="num_procedures <= 0.5\nentropy = 0.985\nsamples = 21\nvalue = [9, 12]"] ;
1106 -> 1108 ;
1109 [label="age_60 <= 0.5\nentropy = 0.65\nsamples = 6\nvalue = [1, 5]"] ;
1108 -> 1109 ;
1110 [label="entropy = 0.0\nsamples = 5\nvalue = [0, 5]"] ;
1109 -> 1110 ;
1111 [label="entropy = 0.0\nsamples = 1\nvalue = [1, 0]"] ;
1109 -> 1111 ;
1112 [label="age_30 <= 0.5\nentropy = 0.997\nsamples = 15\nvalue = [8, 7]"] ;
1108 -> 1112 ;
1113 [label="age_60 <= 0.5\nentropy = 0.961\nsamples = 13\nvalue = [8, 5]"] ;
1112 -> 1113 ;
1114 [label="num_procedures <= 1.5\nentropy = 0.845\nsamples = 11\nvalue = [8, 3]"] ;
1113 -> 1114 ;
1115 [label="entropy = 0.0\nsamples = 4\nvalue = [4, 0]"] ;
1114 -> 1115 ;
1116 [label="change <= 0.5\nentropy = 0.985\nsamples = 7\nvalue = [4, 3]"] ;
1114 -> 1116 ;
1117 [label="admission_source_id <= 6.0\nentropy = 0.722\nsamples = 5\nvalue = [4, 1]"] ;
1116 -> 1117 ;
1118 [label="entropy = 0.0\nsamples = 1\nvalue = [0, 1]"] ;
1117 -> 1118 ;
1119 [label="entropy = 0.0\nsamples = 4\nvalue = [4, 0]"] ;
1117 -> 1119 ;
1120 [label="entropy = 0.0\nsamples = 2\nvalue = [0, 2]"] ;
1116 -> 1120 ;
1121 [label="entropy = 0.0\nsamples = 2\nvalue = [0, 2]"] ;
1113 -> 1121 ;
1122 [label="entropy = 0.0\nsamples = 2\nvalue = [0, 2]"] ;
1112 -> 1122 ;
1123 [label="entropy = 0.0\nsamples = 4\nvalue = [4, 0]"] ;
1103 -> 1123 ;
1124 [label="diabetesMed <= 0.5\nentropy = 0.592\nsamples = 49\nvalue = [7, 42]"] ;
1102 -> 1124 ;
1125 [label="age_70 <= 0.5\nentropy = 0.946\nsamples = 11\nvalue = [4, 7]"] ;
1124 -> 1125 ;
1126 [label="num_lab_procedures <= 46.0\nentropy = 0.985\nsamples = 7\nvalue = [4, 3]"] ;
1125 -> 1126 ;
1127 [label="num_procedures <= 2.5\nentropy = 0.971\nsamples = 5\nvalue = [2, 3]"] ;
1126 -> 1127 ;
1128 [label="num_medications <= 15.5\nentropy = 0.918\nsamples = 3\nvalue = [2, 1]"] ;
1127 -> 1128 ;
1129 [label="entropy = 0.0\nsamples = 2\nvalue = [2, 0]"] ;
1128 -> 1129 ;
1130 [label="entropy = 0.0\nsamples = 1\nvalue = [0, 1]"] ;
1128 -> 1130 ;
1131 [label="entropy = 0.0\nsamples = 2\nvalue = [0, 2]"] ;
1127 -> 1131 ;
1132 [label="entropy = 0.0\nsamples = 2\nvalue = [2, 0]"] ;
1126 -> 1132 ;
1133 [label="entropy = 0.0\nsamples = 4\nvalue = [0, 4]"] ;
1125 -> 1133 ;
1134 [label="num_procedures <= 1.5\nentropy = 0.398\nsamples = 38\nvalue = [3, 35]"] ;
1124 -> 1134 ;
1135 [label="medical_specialty <= 7.5\nentropy = 0.592\nsamples = 21\nvalue = [3, 18]"] ;
1134 -> 1135 ;
1136 [label="num_medications <= 19.0\nentropy = 0.469\nsamples = 20\nvalue = [2, 18]"] ;
1135 -> 1136 ;
1137 [label="entropy = 0.0\nsamples = 12\nvalue = [0, 12]"] ;
1136 -> 1137 ;
1138 [label="medical_specialty <= 2.5\nentropy = 0.811\nsamples = 8\nvalue = [2, 6]"] ;
1136 -> 1138 ;
1139 [label="entropy = 0.0\nsamples = 1\nvalue = [1, 0]"] ;
1138 -> 1139 ;
1140 [label="time_in_hospital <= 12.5\nentropy = 0.592\nsamples = 7\nvalue = [1, 6]"] ;
1138 -> 1140 ;
1141 [label="entropy = 0.0\nsamples = 5\nvalue = [0, 5]"] ;
1140 -> 1141 ;
1142 [label="age_40 <= 0.5\nentropy = 1.0\nsamples = 2\nvalue = [1, 1]"] ;
1140 -> 1142 ;
1143 [label="entropy = 0.0\nsamples = 1\nvalue = [1, 0]"] ;
1142 -> 1143 ;
1144 [label="entropy = 0.0\nsamples = 1\nvalue = [0, 1]"] ;
1142 -> 1144 ;
1145 [label="entropy = 0.0\nsamples = 1\nvalue = [1, 0]"] ;
1135 -> 1145 ;
1146 [label="entropy = 0.0\nsamples = 17\nvalue = [0, 17]"] ;
1134 -> 1146 ;
1147 [label="age_80 <= 0.5\nentropy = 1.0\nsamples = 121\nvalue = [59, 62]"] ;
1089 -> 1147 ;
1148 [label="num_medications <= 39.5\nentropy = 0.991\nsamples = 101\nvalue = [45, 56]"] ;
1147 -> 1148 ;
1149 [label="num_medications <= 18.5\nentropy = 0.995\nsamples = 98\nvalue = [45, 53]"] ;
1148 -> 1149 ;
1150 [label="age_50 <= 0.5\nentropy = 0.926\nsamples = 41\nvalue = [14, 27]"] ;
1149 -> 1150 ;
1151 [label="diag_1 <= 0.5\nentropy = 0.964\nsamples = 36\nvalue = [14, 22]"] ;
1150 -> 1151 ;
1152 [label="entropy = 0.0\nsamples = 2\nvalue = [2, 0]"] ;
1151 -> 1152 ;
1153 [label="glipizide <= 0.5\nentropy = 0.937\nsamples = 34\nvalue = [12, 22]"] ;
1151 -> 1153 ;
1154 [label="num_procedures <= 5.5\nentropy = 0.863\nsamples = 28\nvalue = [8, 20]"] ;
1153 -> 1154 ;
1155 [label="num_procedures <= 0.5\nentropy = 0.779\nsamples = 26\nvalue = [6, 20]"] ;
1154 -> 1155 ;
1156 [label="number_diagnoses <= 8.5\nentropy = 0.994\nsamples = 11\nvalue = [5, 6]"] ;
1155 -> 1156 ;
1157 [label="entropy = 0.0\nsamples = 4\nvalue = [4, 0]"] ;
1156 -> 1157 ;
1158 [label="glyburide <= 1.0\nentropy = 0.592\nsamples = 7\nvalue = [1, 6]"] ;
1156 -> 1158 ;
1159 [label="entropy = 0.0\nsamples = 6\nvalue = [0, 6]"] ;
1158 -> 1159 ;
1160 [label="entropy = 0.0\nsamples = 1\nvalue = [1, 0]"] ;
1158 -> 1160 ;
1161 [label="insulin <= 1.5\nentropy = 0.353\nsamples = 15\nvalue = [1, 14]"] ;
1155 -> 1161 ;
1162 [label="entropy = 0.0\nsamples = 13\nvalue = [0, 13]"] ;
1161 -> 1162 ;
1163 [label="medical_specialty <= 4.0\nentropy = 1.0\nsamples = 2\nvalue = [1, 1]"] ;
1161 -> 1163 ;
1164 [label="entropy = 0.0\nsamples = 1\nvalue = [1, 0]"] ;
1163 -> 1164 ;
1165 [label="entropy = 0.0\nsamples = 1\nvalue = [0, 1]"] ;
1163 -> 1165 ;
1166 [label="entropy = 0.0\nsamples = 2\nvalue = [2, 0]"] ;
1154 -> 1166 ;
1167 [label="race <= 0.5\nentropy = 0.918\nsamples = 6\nvalue = [4, 2]"] ;
1153 -> 1167 ;
1168 [label="entropy = 0.0\nsamples = 4\nvalue = [4, 0]"] ;
1167 -> 1168 ;
1169 [label="entropy = 0.0\nsamples = 2\nvalue = [0, 2]"] ;
1167 -> 1169 ;
